0.110072098672,-0.256388753653,-2.596409559250,0.690240383148,0.070111453533,0.224814385176,-0.706116497517,0.790694355965,-0.088384531438,1.045580744743,0.767738163471,0.644753813744,0.313065648079,-0.040766820312,-0.618143856525,0.051046557724,0.970271587372,1.392951965332,-0.754807233810,0.095346786082,-0.079966574907,0.758632361889,-0.401634365320,0.508474111557,1.455312609673,0.050412561744,-0.038768623024,0.014024607837,-0.356193125248,0.250588834286,0.185985341668,-0.187419489026,-0.920642137527,0.677437067032,0.434042662382,0.802699506283,0.544752538204,-0.326612472534,-0.661407470703,-0.543121814728,-0.288216024637,0.013308562338,-0.128166273236,-0.248411029577,0.095574900508,1.090962529182,1.057309508324,-0.166286975145,-0.318372815847,-0.652665376663,-0.045979507267,-0.394988268614,0.475155711174,-0.292958736420,-0.198575705290,-1.487928628922,-0.634760797024,-0.150839179754,0.821390748024,0.320237278938,0.422683566809,1.142698407173,-0.036880485713,-0.110025972128,-0.106808111072,-0.240711197257,-0.224205523729,-0.213906541467,0.782990098000,-0.700931191444,1.327392101288,-0.347476661205,-0.462709158659,0.161173909903,0.559821665287,0.033623494208,0.130542680621,0.142031446099,-0.422502160072,0.029699623585,0.351596504450,1.203284025192,0.517037928104,-0.799506902695,0.343837976456,-0.289430290461,-0.091969162226,-0.135936975479,0.204838499427,1.063374519348,0.113778322935,-0.580998241901,-0.015461232513,-0.014177601784,0.139293447137,0.691259801388,-0.245688065886,-0.020234044641,-0.389674782753,0.784980416298,0.014382977970,0.612678349018,-0.174527749419,-0.596865415573,-1.224422574043,0.270981967449,1.130942940712,0.010160302743,1.011458277702,0.100901141763,-0.787179112434,1.235077023506,-0.696628212929,0.579603552818,0.066418834031,0.533463597298,0.158123552799,0.105796836317,0.784187555313,0.101047933102,-0.331319302320,0.579870581627,-0.798118770123,0.475088626146,-0.281313985586,0.184730440378,1.307013630867,0.405128538609
