0.287820518017,-0.019445154816,-0.158763393760,-0.001235958887,0.002004363108,0.000275790633,-0.003272937611,0.001156656304,0.002071523108,-0.000126340383,-0.005150317680,0.000230933656,-0.000591583841,0.627314507961,-0.007952640764,0.000004231295
-0.000915480428,0.000108884626,-0.002519430593,-1.576483368874,-1.604048609734,-0.000332846015,-0.000826341915,0.000092702910,0.001797457458,-0.000311947981,0.000115397524,-0.000444890669,0.001720191096,0.014104111120,0.033075049520,0.012580731884
0.086890190840,0.084763608873,-0.062797985971,-0.308682769537,-0.195112243295,0.325549751520,-0.350552558899,0.003240709426,0.245871022344,0.045255176723,-0.059150829911,-0.011427052319,-0.044211052358,1.054385423660,0.798242926598,0.008900227956
-0.000135496084,0.000055653793,-0.000136605944,-1.954439401627,-2.067272901535,-0.000081028411,0.000093005016,-0.000005226393,0.000936068769,0.000020787753,0.000049209000,0.000008909047,0.001015703077,0.003583627287,0.001916936715,0.000132611429
0.549861907959,0.592096745968,0.543227314949,0.001439542510,-0.001010407461,0.001468027709,-0.000963379920,0.000396339747,0.001314535970,-0.001379023772,-0.001496721641,0.000070922521,-0.000446656049,-0.047519724816,0.004053417128,-0.000066062603
0.004387970082,0.007805269677,-0.023039912805,-0.015525626019,0.021477326751,-0.011552890763,0.001424911548,0.000150720211,0.006888742559,0.370090633631,0.174408584833,-0.001803136431,0.127339705825,0.223946556449,-0.010451802984,0.004377296660
-0.001082841074,0.010199743323,0.004265843425,0.034643452615,-0.020429503173,-0.201059147716,0.422120183706,0.000311452313,0.249958992004,0.002535927575,0.006646546070,-0.000457901158,-0.003305476625,0.007238177583,-0.002926707966,0.000099076744
-0.000134753922,-0.516962230206,-0.214314058423,0.030844235793,-0.055731829256,-0.015702778473,-0.045056395233,0.009662700817,-0.009508314542,-0.001045054989,0.005178469699,-0.000014014096,-0.010106241331,0.005235760007,0.335272431374,0.005057810806
-0.003861929057,-0.011141045019,0.012444284745,-0.007182389498,0.005864875857,-0.015668923035,-0.013960700482,0.000854311918,-0.005808731541,0.144198775291,0.195902004838,-0.000196516543,0.196416288614,-0.036317951977,0.001842922880,0.003090001410
0.468035817146,0.632628679276,0.049846019596,0.002671549330,-0.001275182934,0.000635112054,0.000259490043,0.000755947549,0.002860332141,-0.002874657046,0.000532832171,0.000522950257,-0.003040167736,-0.029641311616,0.004941638559,0.000117368960
-0.003439610824,-0.009627031162,-0.004046131391,-0.106108456850,0.081653997302,-0.009148406796,0.015980219468,0.000262907037,0.266469717026,0.004121192731,-0.004963366780,0.000079766345,-0.002937667537,-0.008966709487,0.022322848439,0.001101852162
0.009476784617,0.001635142486,-0.009476657026,-0.005785415415,0.016112644225,-0.016993755475,0.002362163970,0.001135833794,-0.298481494188,0.007054776885,0.001340557588,0.000712282374,-0.007611662615,0.135812580585,-0.010922626592,0.000022903479
0.008466290310,0.007660588715,0.004859278910,0.048445716500,-0.025636924431,-0.461853653193,-0.212441951036,-0.000131384644,0.286357432604,0.007103601005,-0.013422776945,-0.000257216423,-0.001250600908,-0.008514556102,-0.009427702986,0.001466722926
-0.000508776575,0.000598959334,-0.001044604578,0.093749150634,0.105863139033,0.001328101847,0.001971782651,0.000619422935,0.005810627248,0.000028892693,-0.003311652923,-0.000078976263,0.007297614589,0.027754910290,-0.273977935314,-0.004494829569
-0.006029855926,0.471812427044,-0.802182137966,0.008879671805,-0.008870077319,0.000050013594,0.003553784452,0.001761294203,-0.010259320959,-0.002185767516,-0.004007325042,0.009257268161,-0.001198715065,-0.004644879606,-0.002620663261,-0.002189352410
0.005012681708,0.045463524759,0.071038983762,-0.044850461185,-0.257354617119,0.195346489549,-0.020648069680,0.005387836136,-0.075280681252,-0.665726959705,0.684075474739,0.009322992526,-0.014921978116,0.181015357375,0.204011484981,0.017277775332
0.657079637051,-0.321925610304,1.107167124748,0.000861057080,-0.000396402233,0.001096925815,-0.000348288391,-0.000377550081,0.002233376494,0.000431616936,-0.000008277792,-0.000357164798,-0.002033094410,-0.194062933326,-0.000078278972,-0.000313134835
-0.000113771610,0.000771369610,-0.002397264121,-1.106984853745,-1.079503297806,0.000055199333,-0.000203117117,-0.000169685110,0.002623543376,-0.001252675662,0.000413257309,0.000139206750,0.001751242438,0.009098482318,0.047987908125,0.016091438010
0.002901305910,0.021645544097,-0.022399663925,-0.028375400230,0.012573213317,0.087315201759,-0.175115406513,-0.001067988575,-0.177561491728,-0.017582431436,-0.020144954324,-0.000120323122,0.001105783856,0.063944391906,-0.000357286190,0.000412564288
0.005953246728,-0.000607735943,0.003188078292,-0.041173398495,0.025518972427,-0.197023272514,0.033794246614,0.000395441573,-0.216942757368,-0.019399177283,-0.015565790236,0.002147064079,-0.010490393266,0.046268992126,-0.000910026312,0.000508476456
-0.241920828819,0.238944813609,0.200220361352,0.004154314287,-0.002353119897,-0.000988520100,-0.002026706003,0.000156439841,0.006752608344,-0.003441060893,-0.000359502679,0.000321669941,-0.001941120136,-0.382881373167,-0.010534462519,0.000661909580
-0.430020213127,0.091139733791,-0.665237963200,-0.000829384604,0.002082795603,-0.001774221426,-0.000588081777,-0.000991903129,-0.004580276553,-0.000018049708,0.000338270242,-0.000557372638,0.001594794565,-0.061133686453,-0.003027264262,-0.000014250551
-0.000954713207,-0.000322990643,-0.001873282716,-1.915510654449,-2.116016387939,-0.000359845144,-0.001716948580,-0.000580181077,0.003304459853,-0.000667314976,0.000761381001,0.000353226234,0.000813716033,0.011091295630,0.022379793227,0.011615851894
-0.264533162117,0.105606153607,-0.303133755922,-0.000191174899,0.000908524729,0.001511603361,-0.003235871205,-0.000174596949,0.003160530003,-0.002259222558,-0.001933203195,-0.000348867849,-0.006943638902,-0.289077460766,-0.004504078534,0.000623041647
-0.001376615837,0.044156339020,0.074697263539,0.006080193445,-0.014206114225,-0.000781816139,-0.001603467623,0.003025635611,-0.000502267911,0.920102417469,0.419729709625,-0.002448120387,0.024297019467,0.000197618487,-0.001789414207,0.011343754828
0.001349140541,0.001298916177,-0.001610186999,-2.584596157074,0.393815696239,-0.000954004296,-0.000846486597,-0.000228122124,0.002380530583,0.000262109126,0.000056507135,0.000348572852,0.001105893753,0.009438962676,0.007568842266,0.003831212409
0.000211600796,0.000566823175,0.000332957628,-0.209706559777,0.217711925507,-0.000320850872,-0.000175923051,-0.000157283226,-0.003090478480,0.000944987871,0.000849025499,-0.000130903703,0.001488635899,-0.005020863842,0.219470173120,0.000497046160
0.001604033285,0.000086600696,-0.000188757520,-0.442515254021,0.360688954592,-0.003567672335,-0.001622858457,0.000216302360,0.002741049044,0.000984874205,-0.000373157556,-0.000270385965,0.001569140004,-0.018244521692,-0.112047992647,0.001461231150
0.001747615053,0.010223849677,-0.004123630933,0.002242270391,0.000794863794,0.148956522346,-0.150803431869,0.000885091256,-0.025298874825,-0.175285324454,0.112159132957,-0.000274945836,-0.026684219018,0.088804237545,-0.000037478276,-0.001578510390
-0.001428046729,0.001266768901,-0.002031433396,-3.470218896866,0.357415884733,0.001225551241,-0.001160477288,0.000274466904,0.004769026767,-0.000521535170,0.000018247616,-0.000198171707,-0.000004562592,0.006641098764,-0.009037185460,0.004554500803
-0.019722325727,0.007390622515,0.013341197744,0.001665062387,0.000660037156,0.000599404157,-0.000242435417,0.000432585337,0.002048830735,-0.003648133716,0.001410454861,0.001629248378,0.004615049809,0.852757155895,0.004519370385,0.000376726326
0.002699904609,0.003333331086,-0.001882973476,0.000618906284,-0.000886641385,0.380883723497,0.044916026294,0.000300658168,-0.003416603897,0.352179378271,0.088320069015,0.000214859436,-0.009711433202,0.030590897426,0.000367031549,-0.000072739414
-0.001752431504,-0.001424144139,-0.001194685232,0.361277878284,-1.093968987465,0.000278084510,-0.000189235579,-0.000039515122,0.000698799558,-0.002729256405,0.001098711509,-0.000421074277,-0.001793876640,0.010379494168,0.008619076572,0.006523101125
-0.012180945836,-0.016975212842,-0.016241265461,0.006132486276,-0.004691816401,-0.004620851949,-0.007915762253,0.342765957117,-0.085629865527,-0.003554666415,0.001457009581,-0.351230949163,0.005922060926,0.009633028880,0.008136324584,-0.000086538079
-0.000608209462,-0.000876016915,-0.002491401276,0.093633279204,0.093459151685,0.000410847337,-0.000642639119,-0.000085356827,0.002096875804,-0.000741637428,0.000466238795,-0.000560283719,0.001402890775,0.084841787815,-4.088493824005,-0.003587341635
0.037098422647,0.073678880930,-0.010138377547,0.001030462794,-0.001020553522,0.000887423754,-0.000074726231,0.000000697309,0.003881896148,0.003350562183,0.003867676482,0.000775107706,-0.004636823200,-0.694743573666,-0.006415740587,-0.000585753995
-0.063456878066,-0.073646761477,0.082953475416,0.036953527480,-0.015409172513,0.879736423492,-0.250945687294,0.004033305682,-0.570613086224,0.344039052725,-0.309214800596,-0.014072198421,-0.100983709097,-0.466432213783,-0.018409406766,0.006161459256
-0.000517248758,0.000423149613,-0.002091014991,-0.513161063194,-0.457887142897,-0.000962996099,-0.001384786330,-0.000692837231,0.004305646289,-0.000833363971,-0.000372780371,-0.000163251549,-0.001371279475,0.041394706815,0.423187494278,0.009819435887
-0.009941509925,0.018244083971,0.059674587101,-0.423133879900,-0.349189251661,-0.003986787517,-0.041608043015,0.004121822771,0.032307658345,0.018017821014,0.012891526334,0.004218330607,-0.006742880214,-1.993881583214,-0.258973896503,0.075223572552
-0.000557836262,0.001559421420,-0.001261604717,-0.676309049129,0.429188370705,-0.003258961719,-0.001604339923,-0.000821673952,-0.001159935375,0.000935889024,0.000306852016,0.000007594513,0.000151282991,0.017293233424,0.039420392364,-0.000898071565
-0.004461322911,-0.038933530450,0.001384948846,-0.018034275621,0.009638315067,0.676446497440,0.235627561808,-0.011913533323,0.033111121505,-0.030191324651,0.035791203380,0.006557207555,0.036505766213,-0.035088222474,-0.007709105499,-0.102123938501
-0.000839736836,0.000948512694,-0.003445376409,0.499792248011,-2.810877084732,-0.000521985814,-0.001782396459,-0.000829123252,-0.000759099377,0.000182136864,0.001820526901,0.000527894183,0.006525383331,0.012269670144,-0.068894460797,0.011403345503
0.001071871840,0.001573130605,-0.000619028986,-0.193153515458,-0.252829134464,-0.000694547896,0.002941829152,0.000136414994,0.000727463805,0.000412117719,0.002414147602,0.000187814265,-0.001263684011,0.017692761496,0.068533711135,-0.141493991017
0.001322505646,0.013700830750,0.000470036670,0.029099205509,-0.022574461997,0.458503574133,-0.035155206919,-0.000408634340,0.248204380274,0.022953618318,0.000915225188,0.000295158825,-0.005605351645,0.029764348641,-0.002243203577,0.000702917459
0.013666924089,0.024570085108,-0.002350280993,0.018232187256,-0.020287510008,0.295972257853,0.605155706406,0.000016004153,0.393800169230,0.010673983954,0.016228292137,-0.002155435039,-0.003750081407,0.071401022375,0.007187135052,0.000546875934
-0.000550850935,0.000877236016,-0.001532307593,-1.194319844246,0.362193733454,-0.003030217718,-0.001694262959,-0.000251284655,-0.001253543887,0.000169049104,0.000024237723,0.000878062681,0.001321199699,0.005974279251,-0.022204384208,-0.001280433731
-0.004135476425,-0.010089408606,0.002129866742,-0.004943257663,-0.001582789933,-0.006036893930,0.002280649729,-0.004423350096,-0.009006897919,0.261402994394,-0.136922061443,-0.002076911740,0.257989883423,-0.000077100980,0.007174969185,0.000244839379
0.003032001434,0.002536156215,0.000963081722,-0.005102511030,-0.003843833460,-0.001027769758,0.001638169750,-0.000563147885,-0.000319699931,0.000058007419,-0.000219313646,0.000532134669,0.002079575788,0.792524755001,-0.001208149130,0.001073697116
-0.000026669682,0.000160916810,0.000273576326,-0.009766584262,-0.009720891714,-0.000114293391,-0.000159855030,-0.000052307430,0.000207683275,0.000204218290,0.000005223244,-0.000084779997,0.000109081004,-0.026519740000,0.709908366203,0.000274783990
0.000233213475,0.001250938047,-0.002065874869,-1.922989010811,0.423599123955,-0.000873864803,-0.003926087637,0.000028921297,0.000027630924,0.000604503672,-0.000038185353,0.000210259255,0.000370933325,0.009835804813,-0.010838738643,0.000325458881
-0.014922686853,-0.005506641231,-0.005936791189,0.033982459456,0.035426110029,0.082078248262,-0.265216469765,-0.001394825056,-0.136361747980,-0.013285391033,-0.010576524772,0.000765555131,-0.032625120133,-0.036335218698,-0.026888355613,0.001883484074
0.225410565734,-0.419063031673,-0.006007530726,-0.004618831445,0.002616664860,0.000173642431,-0.000564171991,-0.000844093680,-0.002314561745,-0.003790532704,-0.004146984313,0.001007139334,-0.001703119255,0.436503529549,0.005098715425,-0.000202132564
0.006161481142,0.013344184496,-0.000796508626,0.052041392773,-0.104514576495,-0.000769760110,0.001275557792,-0.000572287943,-0.009771177545,0.007904684171,-0.009655154310,0.000063780913,0.238274708390,-0.020284660161,0.017621183768,-0.002298199804
0.001349253464,0.009949611500,0.003670806764,-0.008070381358,0.017091572285,0.008099932224,-0.001101681264,0.000429843785,-0.004598340020,-0.343849122524,0.132192000747,-0.001446286216,0.261313378811,0.018592365086,-0.003507541493,0.001069093938
-0.301833420992,-0.115228489041,-0.588860571384,-0.000364982086,0.001943342970,0.000084547304,0.002067221329,0.000905280933,-0.001944449381,0.003666507080,-0.003741074121,0.000604235101,0.010136700235,0.515482962132,0.001200282481,-0.002971588634
0.001082106610,0.000868116331,-0.002259045374,-0.999913096428,0.396874159575,-0.003465826157,-0.002295895247,0.000186532052,-0.007307723630,0.001748310053,-0.000224513016,-0.000638721744,0.000148318344,0.007121234667,0.013827088289,-0.000675750081
0.001489480608,-0.003075975459,-0.000609874900,-0.327412992716,0.191180408001,-0.011924563907,0.001746282214,0.001037353999,0.150951489806,0.001013280591,0.000087685032,0.000757370261,-0.002318203216,0.009791592136,0.006207516883,0.001660722541
0.001665470074,0.000651314855,-0.000373993389,-0.005254781339,0.002284172690,0.188068345189,0.012428285554,-0.000066429573,-0.059408422559,-0.180915996432,-0.044526558369,0.000643441221,-0.033396355808,0.039522301406,0.004618125036,-0.000812396640
0.037418689579,-0.052390325814,-0.056319393218,0.000339276507,-0.002940103179,-0.000855517574,-0.000396278221,-0.000249396398,-0.003375899279,0.003293300513,0.003711025463,-0.000441117911,-0.002621479798,-0.777177631855,-0.000917941972,0.002428168897
-0.003456507111,0.005268034525,0.003794599324,-0.007526370697,0.003233900759,-0.003194214078,0.003875379218,0.163320958614,-0.068482749164,0.003881013952,0.009271949530,-0.814320027828,-0.297323524952,0.004738884978,-0.000009855181,-0.019362805411
0.009153228253,-0.016661934555,-0.053991150111,0.384574443102,0.318066149950,0.003715951461,0.037775769830,-0.003846428823,-0.029176464304,-0.016248006374,-0.011683559977,-0.003749568947,0.006423520390,1.810061454773,0.235172554851,-0.068347610533
-0.002833548002,0.001208050875,-0.003313668072,-0.333533465862,0.329050123692,-0.002949356334,0.000167029415,0.000834734179,-0.000107849381,0.002301876200,-0.000125303879,-0.000108709035,-0.000012309609,0.001285645063,-0.026691999286,-0.001787694055
-0.002138787415,-0.003705590731,-0.004856676329,0.126457929611,0.169419184327,0.001113199629,0.001568172476,-0.001072073122,0.008019723929,0.000952248403,0.001521505066,0.000667516375,0.007891945541,0.079518891871,0.033170502633,-0.870887577534
0.002922655316,-0.005104479380,0.004861550406,-0.002553217812,-0.003044453915,0.011272002943,0.002245453885,-0.759485900402,-0.436147153378,-0.010701445863,0.001564208651,-0.304146975279,-0.129109904170,0.002349223010,0.005347784609,0.011867823079
0.000071672395,-0.003049396211,-0.004010179080,0.072287976742,0.055951818824,-0.000087933666,-0.000284014153,0.000965416199,0.002440470504,0.000093493538,-0.001152942190,0.001298328396,0.000870007090,0.159370228648,-1.465362310410,-0.004511015490
0.316944599152,-0.039937101305,0.129337668419,0.002166786930,-0.002329000970,0.000641959079,0.000141724828,0.000137870506,0.001895724796,-0.000060637809,0.001067305566,0.001024229918,-0.000869598764,-0.049719817936,-0.002437607851,0.000082599123
-0.168876349926,-0.195552900434,0.309454053640,0.000618654711,-0.000629693852,-0.000246023439,0.002406069078,0.000957404613,-0.000776963308,0.000403690763,0.002011323115,-0.001444177004,-0.001573337591,-0.474748373032,-0.000093868781,0.000981748221
-0.350177437067,0.710907518864,-0.074402503669,0.000802928233,-0.001395187108,0.000182373580,-0.001621429110,0.000400881254,0.001214928925,-0.000244863622,0.002599416533,-0.000887576840,0.000323600834,-0.063184037805,-0.003788219998,0.000136205344
0.005952120759,0.001408748212,0.006778097712,0.046813890338,-0.036175366491,0.160315662622,-0.658924460411,-0.001916985377,0.281870841980,0.002635299927,-0.021564600989,0.001490731956,-0.016493385658,0.042128998786,-0.000570179895,-0.000430788234
-0.248423874378,-0.299462050200,0.065640635788,0.002085159533,-0.002363365376,0.000923760410,0.002309170784,0.000106017767,-0.000957276148,0.000780183414,0.001995809376,-0.000672907801,-0.004079938401,0.373028337955,0.002901917323,0.002699811244
0.001648873091,0.000468343409,-0.002653722884,-0.000325127476,-0.003207815811,-0.252824276686,-0.303757905960,0.001719997847,-0.021524986252,-0.194833993912,-0.349563151598,0.001780683175,-0.005420180038,0.021658470854,0.001360003138,0.000445398327
0.016020860523,0.088864490390,0.162955358624,0.011827683076,-0.026191299781,0.009869426489,-0.000139260170,-0.015523471870,0.036228284240,-0.142689168453,-0.924295783043,0.012394079007,-0.007970338687,-0.001381161856,0.035090371966,0.033092856407
0.000591947231,0.001133001060,-0.000250771991,-0.001589831663,-0.000702519610,-0.127992853522,0.320512533188,-0.000503063435,-0.013803086244,-0.172568172216,0.273703455925,-0.000305546069,-0.004560666624,-0.002201785566,0.000907792361,0.000547834497
-0.026264976710,-0.115022987127,0.043734598905,-0.218720257282,0.351838082075,0.025099771097,0.083224818110,-0.006777443457,-0.021592024714,-0.083002910018,-0.046906087548,-0.007566940039,0.083009831607,0.032830055803,0.278918713331,0.188610628247
0.353349924088,-0.665704548359,-0.019598437473,0.000766898156,-0.000937807839,-0.000492636347,0.001725816866,-0.000574942445,-0.000417244650,0.001518244040,0.000993595459,-0.000936166733,-0.002502545249,-0.029250741005,-0.000226425662,-0.000073087969
-0.294975847006,-0.160962194204,-0.532344698906,-0.000850490935,0.002517857822,0.004624534398,0.004110314418,0.000824538467,-0.001481666346,0.004335176665,-0.004964511376,0.001428576652,0.001336396090,0.676205396652,0.005013136659,-0.000161858086
-0.001082028146,0.003674752777,0.000469124148,0.000437706796,-0.004227311816,-0.161655560136,0.068956866860,-0.000540676352,-0.039280332625,0.204149037600,0.082976274192,-0.000375007978,-0.047987215221,0.034651152790,0.003083730582,-0.000010364225
-0.202235370874,0.357181191444,0.376867800951,-0.002029044554,0.002069453709,0.001187776099,0.000170176980,-0.000211042876,0.002557993867,-0.001777439727,-0.002021907596,-0.001266159932,0.003062662203,-0.050482276827,-0.003384389449,0.000486037956
0.546367466450,0.612605810165,-0.454407989979,0.000669630477,0.001374836196,0.001417384483,0.001180601539,0.000422293320,-0.001446066657,0.000306872738,-0.002474967856,-0.000143649668,-0.001179926679,-0.012322696857,-0.001008037128,0.000444418809
-0.436694532633,-0.084110118449,0.169475317001,-0.001308352803,-0.000704673235,-0.001636828762,-0.000845523900,0.000604945526,-0.000264962146,-0.000754099805,-0.000135116599,0.001255614916,-0.002869385062,-0.021640852094,-0.006828211714,0.000986780156
-0.001029737294,0.001476218342,-0.001685479539,0.000005628503,-0.003306392115,0.013608589768,-0.003262700047,0.521613001823,-0.462823003531,0.000240962763,0.007684615441,0.327819734812,-0.111582912505,-0.007091769017,-0.002904037479,-0.000900560932
-0.003754124278,-0.001899911091,0.001305317623,-0.009068380110,0.009472985752,0.000313190219,-0.001982333139,-0.000659916550,0.000012067126,0.005184106994,0.001949858153,0.149535551667,-0.927194714546,-0.004243641626,0.012959012762,0.000963329687
0.219567447901,-0.553937256336,0.291801512241,-0.001218021032,0.000443258294,-0.000199270435,-0.001679596957,-0.000034925895,0.001178136095,0.001627736376,0.005207084119,-0.001593408873,-0.003151362762,-0.540112197399,0.000999756739,-0.000750032079
0.023809133098,-0.003368891776,-0.038286674768,-0.011533675715,0.013991526328,0.002218098147,-0.004037845880,-0.002183179604,-0.000279239059,0.173027366400,-0.184624388814,0.001081009163,0.045389886945,0.295927435160,-0.002197873779,-0.002559335902
-0.000323391723,0.000249492296,-0.001344305580,0.384438395500,-1.579665184021,0.001417694613,0.000123661375,0.000312367163,0.000364949141,-0.000331997493,-0.000478947244,0.000215218533,-0.001102285925,0.009339066222,-0.003589916276,0.005915610120
-0.014618020505,-0.017040811479,-0.019107889384,0.023588024080,0.026503682137,0.002682317514,0.004460258409,-0.000014404584,-0.006886267103,-0.002672208007,0.000064403437,0.002332899952,-0.006774025504,-3.317763805389,0.014680589549,-0.005316838156
-0.475537240505,-0.138394817710,0.345588207245,-0.007821953855,0.007280374411,-0.004625001922,0.001067304052,-0.000315303623,-0.002723343205,0.004303201102,-0.000436927425,-0.000119537195,0.000693398295,0.464414268732,-0.002113883616,-0.000528454140
-0.373625636101,-0.462130635977,0.477995723486,0.005502347369,-0.005514599383,0.003157809842,0.006410429254,0.000540527923,0.007488251198,0.004383752588,0.007771257311,-0.000046384990,-0.006883665919,-0.545492529869,0.002404926810,0.001145359129
-0.009583869018,-0.003936673980,0.064497128129,-0.041217073798,0.037659008056,-0.350730508566,-0.512776076794,-0.020983831957,0.015202340670,-0.000157866481,0.006226730999,0.054278679192,-0.024206357077,-0.001311068307,0.055930204690,-0.119952000678
-0.002960187150,-0.001971197082,-0.002562905196,0.492841243744,-0.496391654015,0.001014543814,-0.000027562099,-0.000478645059,-0.006144555286,0.000234969921,-0.001521611004,0.001726359827,-0.001806522370,0.019063917920,-0.004888704978,0.011895653792
-0.000358454941,0.000610359129,0.001748557785,-0.033666618168,-0.041295912117,-0.000137302181,-0.000060870159,-0.000621284358,-0.002774269320,0.001076747314,-0.000965458166,0.000288040988,-0.002937743207,-0.017760237679,-0.010543369688,0.403574734926
0.003365777899,0.010547496378,0.000060547743,0.172218531370,-0.025504680350,-0.001203726046,-0.003745155409,0.000208211350,-0.000086835287,-0.004334275611,-0.000005118808,0.000449632615,-0.001410368946,-0.289400875568,-1.820756793022,0.018088627607
0.000908482296,0.000587484508,0.002513348358,-0.029820365831,-0.021093986928,0.000560522371,-0.000274327089,-0.000080070407,0.000505668053,-0.000836859690,0.001531071379,0.000441628770,0.000798496185,0.509041726589,-0.020812882110,0.003062102012
0.004151937552,0.001920267474,0.000181894342,0.000160076961,0.001909159939,0.056187469512,0.216942906380,0.001087072538,-0.042297098786,-0.124510496855,-0.155478402972,-0.000476621237,-0.030072094873,0.046263948083,-0.001000713673,0.000097034332
-0.001084967400,0.003143056529,-0.003844258143,-0.003019959433,0.003272247734,0.135764732957,0.230424448848,0.001375357388,-0.019450133666,0.105152241886,0.217089965940,0.001676730812,-0.033262632787,0.078700505197,-0.000697282201,-0.001420543063
0.055066019297,0.064564026892,-0.072008989751,-0.030989371240,0.013103008270,-0.768634676933,0.219236850739,-0.003484057961,0.496836423874,-0.300302952528,0.270380735397,0.012296349742,0.088080286980,0.406153112650,0.016128832474,-0.005045799073
0.007197423372,0.033017069101,0.030870340765,0.767972290516,0.749745547771,0.043430507183,-0.072558827698,0.000370084395,0.158745646477,0.017826672643,0.009451891296,-0.003325326834,0.090085491538,-1.158939123154,-0.639002501965,0.068541087210
0.001812138362,0.008777542971,0.006875952240,0.032240550965,-0.029454810545,0.360119670630,0.701835155487,-0.001534449402,0.320551455021,-0.005134486593,0.001796698663,-0.001146416180,0.010454893112,0.031278952956,0.001886255923,-0.003298961325
-0.000660321617,-0.000571097771,-0.002228368307,-0.446216911077,-0.410063147545,-0.000518249173,-0.001626595273,0.000207187491,0.001478618826,-0.000285294082,-0.000505680102,-0.000744565099,0.002323484048,0.048356562853,0.078903928399,0.011958538555
-0.015487306751,-0.000328410068,-0.003550361143,0.203535482287,0.208910301328,-0.004720980301,-0.012947003357,-0.001389452722,0.017335657030,0.002922636457,0.008085954934,-0.001708982862,0.022497437894,-0.362968534231,-1.310257315636,-0.005550740752
-0.000991257024,-0.002022632165,-0.014076125808,-0.000390115689,0.010552230291,-0.010067147203,-0.002493846696,-0.001021389267,-0.001805247972,-0.225214317441,0.138177230954,-0.001224611187,0.229484021664,0.037228286266,-0.006181164179,0.000231551327
0.006102068350,0.007347830106,0.010742306709,0.037665534765,-0.058894693851,0.003242519451,-0.004436949268,0.001929201651,-0.002525225515,-0.045977283269,-0.204311162233,-0.002458033385,-0.134897246957,-0.029240017757,0.024900950491,-0.001453836914
-0.009542222135,-0.043590772897,-0.040882103145,-1.013381958008,-0.988561868668,-0.057330481708,0.095845758915,-0.000537570042,-0.209604308009,-0.023555111140,-0.012511399575,0.004465138540,-0.118965506554,1.528710722923,0.842800974846,-0.090517923236
-0.001119828783,-0.003050558735,-0.004249178339,0.087100535631,0.090204365551,0.001576128765,0.000003801144,-0.000296088576,0.002892539604,-0.001016745111,-0.000242911454,-0.000260735134,0.000978783704,0.125191107392,-3.746549844742,-0.003640036564
0.010986635461,0.014327815734,-0.003587350948,0.069123722613,-0.035491686314,-0.355549186468,-0.639945805073,-0.000618746853,0.407276451588,0.002902555978,0.013064291328,0.000519875553,-0.003858849406,0.000426145474,-0.015394587070,-0.002215456683
-0.001024711877,-0.000898299390,0.001066891011,-0.060007732362,-0.052406344563,0.000440080097,-0.000035017569,0.000302859728,-0.001436081482,0.000196606838,-0.000446888560,0.000164661673,-0.001599543146,0.411748588085,0.107107125223,0.003084985306
0.001099697431,-0.003845010186,0.005660281051,-0.004432930611,0.003961375449,0.005977925844,-0.000707889907,-0.000447604398,-0.009322660975,0.022818755358,-0.273718982935,0.000869779615,0.239880427718,0.001942151226,-0.002170493593,-0.002025144175
0.576439678669,-0.245266571641,-0.834916591644,-0.002347747795,0.003746928414,-0.001969211269,0.000973296410,0.000123145524,-0.001675560139,0.001761231455,-0.001228341949,-0.001188059570,-0.000614745135,0.093858413398,-0.004488198552,0.000169197359
-0.000846184557,-0.000997245428,-0.002151005203,0.101195521653,0.101240910590,0.000896496000,-0.000581796106,0.000328924274,0.002286023926,-0.000964718754,-0.000313834083,0.000379627425,0.001714917133,0.073262259364,-4.695280551910,-0.002894984791
-0.001263944316,-0.000594835496,-0.001854342641,-1.762056827545,-1.864311575890,0.000004639749,-0.000857093371,-0.000259781547,0.003572915914,-0.000327121408,-0.000016952488,0.000017977733,0.001797089470,0.018144646659,0.026422683150,0.009713751264
-0.004845678341,0.004095536191,-0.012828188017,-0.012332462706,0.067365527153,0.007274142932,0.014712337404,0.000757974805,0.017156081274,-0.075423896313,-0.212121888995,-0.000269452576,0.084532946348,0.036858994514,-0.015942791477,-0.000287266448
-0.000397050433,-0.000323328102,-0.001032699714,0.055873539299,0.069747261703,-0.000250937504,-0.000826816715,-0.000198155612,0.001721913693,-0.001125967479,0.000324170891,-0.000442051212,0.005551609211,0.029112057760,0.014056768268,-0.281080067158
-0.001875783666,-0.006390037946,-0.007535951212,-0.008475192823,0.012846784666,0.003596303519,-0.007624428254,0.000769645267,-0.005526757333,-0.249240487814,-0.250537067652,0.000312883552,0.267154574394,0.022577181458,-0.010304003023,0.004440771881
-0.001159669482,-0.003650561208,0.012706986628,-0.007560839877,0.007983809337,-0.228598639369,-0.091380819678,0.001675660140,0.035492878407,-0.040256224573,0.208059608936,0.000922918029,0.031202377751,-0.141682147980,-0.000465332036,-0.003098040819
-0.096680581570,-0.093866579235,0.069166459143,0.342446953058,0.214783996344,-0.360516905785,0.387578547001,-0.003847293556,-0.272228628397,-0.050656873733,0.065482333302,0.012544235215,0.048779442906,-1.167316198349,-0.883291959763,-0.009881301783
-0.001043450204,0.003261378268,-0.002019334817,-0.006565490272,-0.003067799145,-0.051028259099,-0.078119575977,-0.000990187284,0.031911373138,-0.068497143686,-0.124033242464,0.002730762586,-0.114781476557,0.078855134547,0.010087660514,-0.002393266186
0.005493719596,0.005414111540,0.034982223064,0.042743582278,-0.029034942389,0.044475600123,0.102337069809,0.001387423836,0.005784833338,-0.003032470588,0.042645521462,0.002502786461,-0.007395358756,-0.100567884743,-0.008296940476,-0.006359276827
-0.563705146313,-0.001654950785,-0.038054499775,-0.002156044589,-0.010302997194,-0.003763285233,0.003939426970,0.003901886521,0.000988067593,-0.009830021299,-0.003489695489,0.005343215074,0.016414379701,0.007394686807,0.010833871551,-0.009854645468
-0.305933505297,0.481651246548,-0.238853812218,0.000374205032,0.001119586872,0.001859172015,0.000326253357,0.000344059197,-0.000709675427,-0.002391760005,-0.002307774732,-0.002736622468,0.002676040633,0.439130365849,-0.004259207286,0.000723881181
0.016940012574,0.024931106716,-0.002398550743,0.111446894705,-0.034674335271,-0.229945376515,-0.199473753572,0.001574821654,0.150080725551,-0.001760030747,0.011057034135,0.000914182339,-0.012268996798,0.078867472708,-0.099288351834,-0.000831635494
-0.002604865003,-0.002446338069,-0.002546134870,-0.001491866191,0.002587534022,-0.000703213969,-0.001738142222,-0.773310065269,-0.007147718687,-0.002362326486,-0.000667413871,0.732539534569,0.004968295339,-0.000226862379,0.000541859947,-0.001076981192
-0.000644863991,0.000612505653,-0.000572591845,0.340692430735,-0.819683969021,0.001942437957,0.000217362802,0.000105088329,-0.000334032549,-0.002461625962,0.000768617552,0.000771665189,-0.002205957891,0.013945397921,0.027408599854,0.007092896849
-0.000783527503,0.000742173463,0.001626491081,0.207685753703,-0.107436895370,0.007024039980,0.002001139103,-0.000489847560,-0.106246165931,-0.001921364455,-0.000534897903,0.000144760299,0.001135596540,-0.010899369605,-0.002469760366,-0.000239064088
-0.391716152430,-0.286232471466,-0.121980905533,-0.002814877313,0.001675739652,0.000411153480,-0.003454296384,-0.000448603532,0.001052526757,0.000775689899,-0.001020141062,-0.000654955045,-0.004961606581,-0.398307651281,-0.004621514119,0.000818920031
-0.005694051273,-0.052247259766,-0.080758653581,0.050451636314,0.295614808798,-0.222836330533,0.023670209572,-0.006246579811,0.085614375770,0.762832105160,-0.783458113670,-0.010895574465,0.017206447199,-0.207014024258,-0.234038606286,-0.019523324445
-0.001220585313,0.000371588947,-0.001660031732,-1.002499222755,-0.986978709698,0.000068597292,-0.001719088643,0.000682111247,0.001607426326,-0.001211042749,-0.000671869959,-0.000933889183,0.000856224273,0.005495947320,0.066146567464,0.015114737675
-0.004258549307,-0.001105386880,-0.006120504811,0.150627419353,0.180986538529,-0.007759016473,0.002744786208,0.001134738210,0.007056625094,0.004513772670,-0.005535610020,-0.001857765368,0.008915207349,-0.345799803734,-0.849739313126,0.029390681535
-0.036983225495,0.020685989410,0.092830397189,-0.120431795716,-0.007687724661,0.004769151099,0.091792583466,0.009669590741,-0.054271195084,-0.004354616627,0.016053970903,0.002654483309,-0.004466188606,-0.002160649979,1.679311871529,-0.101349234581
