-0.281171023846,-0.057674184442,0.185855552554,-0.249075248837,-1.222164988518,0.738101482391,-0.136469751596,0.781742274761,-0.730131149292,1.068010568619,0.230725854635,-0.795441031456,1.263744115829,-0.259565711021,-0.189236685634,0.134598255157,0.177925497293,1.657086253166,-0.295788645744,0.434549719095,0.743808984756,-0.390355318785,-0.443283945322,-0.327662706375,-0.394075304270,0.915078282356,0.454569280148,-0.052879583091,1.004125356674,-0.338257193565,0.999671578407,-0.146418616176,-0.361056059599,-0.958076298237,-0.570473194122,-1.041668534279,0.632937431335,0.896223425865,-0.045219343156,0.762390017509,2.152262210846,0.587347388268,0.213946014643,0.370911747217,-0.736183106899,-0.478654950857,0.168033048511,1.321906208992,-0.459551602602,-0.016032306477,-0.117126896977,0.220704972744,1.404420852661,0.934591174126,-1.006227374077,-0.248620465398,-1.021715164185,-0.179062098265,0.317271500826,0.765350878239,0.798302769661,-0.170550718904,0.501988530159,-1.225668072701,0.611604750156,0.718466520309,-0.794727802277,-0.118351936340,0.695029854774,-0.007912362926,0.154373094440,1.198900818825,-0.775825858116,-0.472092807293,0.822905778885,-1.620682239532,2.191635131836,-0.619017720222,0.280471295118,-0.763454854488,0.308348000050,0.479988485575,-0.754366695881,-0.703916847706,-0.226061925292,0.967216789722,-2.927024841309,0.413925081491,0.951072752476,0.125362381339,0.125363945961,-0.558251023293,-0.635098576546,-0.843558549881,-0.751086056232,0.991558372974,-0.906999170780,0.120143346488,-0.237909600139,-0.197323724627,0.345803499222,0.949934899807,-1.378575563431,-0.444858700037,-0.061764832586,0.348111927509,0.093969985843,-0.620690762997,0.639627575874,0.702985882759,0.162782698870,0.672968327999,-2.188557147980,0.775283157825,0.732492983341,-0.127050668001,0.309919267893,-0.141193553805,-0.010534106754,0.393681883812,-2.664188385010,0.077724881470,-0.447310417891,-0.683484911919,-0.027518484741,0.596193432808,-1.171951532364,-0.694314479828
