0.608959138393,0.115473099053,2.513673543930,0.251966387033,-1.097436547279,-0.290465384722,1.625728011131,-0.024216743186,0.156419456005,1.385095834732,0.047254256904,-1.604377508163,-0.149819195271,0.192933052778,0.403995603323,0.500490128994,-0.487607568502,-1.143924236298,-0.216567769647,-0.042636826634,-1.434118747711,0.150784075260,0.231576487422,-0.332667827606,0.072218842804,-0.629966676235,-0.136707276106,-1.270168662071,-2.424055337906,-3.567490816116,-1.076785445213,-1.786605834961,0.135498911142,1.529425501823,0.184923097491,-0.610350906849,1.400465846062,-1.195760846138,-1.210571646690,0.282629936934,1.686294317245,-0.001251282752,-0.311580389738,-0.594679534435,-1.152048230171,0.744656324387,0.703208029270,-0.319917201996,-0.086407229304,0.069565601647,-0.489798694849,0.005056827329,0.066109761596,0.750722944736,-1.131461501122,1.526401281357,0.090889446437,-0.646092712879,-4.144303321838,0.715115785599,-5.063564777374,0.058143004775,-0.851585328579,0.693246781826,1.528187751770,-1.110728979111,-0.284688591957,0.473369210958,2.103498935699,-0.782220304012,0.017063220963,-0.259654015303,-0.800902664661,-0.897524118423,-0.008621704765,2.011506557465,1.135850071907,0.263382315636,0.004106800072,0.601001739502,-1.164988160133,-0.753096342087,-4.395644187927,1.193637847900,-0.973419487476,0.269955724478,-0.090080454946,-0.400316685438,-0.247516974807,0.439304649830,1.315805792809,2.610307931900,-1.384937167168,-2.707824468613,-0.547628641129,-1.333080649376,-0.384181767702,-0.385408371687,-0.785617709160,0.514927089214,0.185998633504,-0.234060078859,0.142792195082,0.796491146088,0.698042452335,-0.775129199028,1.779944539070,-0.796323716640,0.337610095739,-0.856922090054,0.107732027769,-0.004691598937,1.449625372887,0.356982767582,1.114228248596,0.297827005386,-1.292728185654,-1.570901989937,0.135327726603,-0.597261428833,-0.432290285826,-0.692272365093,0.885697662830,-0.322545260191,0.107744410634,-1.359300732613,0.553442478180,0.641693174839
