-2.269683122635,-1.698472857475,-3.415804624557,-0.498167425394,-5.253614425659,-0.271442472935,-3.596723556519,-2.004899263382,-4.629868030548,1.130428314209,-0.096551574767,-0.239583164454,-10.011274337769,2.491940259933,-1.377609252930,-1.087673664093,-3.699738502502,-0.542525708675,-2.627768516541,-6.362378597260,-2.485123157501,-1.384258985519,-1.201263546944,-1.452393412590,-0.424820810556,2.521166324615,0.748785257339,-2.613423109055,-0.175123021007,0.872022509575,-0.309648305178,-2.122443199158,-2.011633634567,-7.559769630432,-2.178452014923,-2.209879636765,-1.318592190742,-7.831908702850,-1.119042396545,-1.556808233261,-1.949433565140,-3.244147777557,0.293484479189,-0.342140823603,-0.556672632694,-0.929864346981,-8.461718559265,2.453341722488,1.007522583008,-3.092069625854,-2.389621973038,-0.980583846569,-0.250416398048,-6.941630363464,-2.005955696106,-1.240012049675,-1.780721306801,-0.903360307217,-0.203601956367,-0.325595766306,-0.142412021756,-1.805820703506,2.696139335632,-1.330729722977,-2.812486886978,-9.285935401917,-2.580595970154,0.342257350683,0.114893555641,-1.572821617126,-0.557216346264,2.915288686752,0.911081790924,0.254422187805,-1.417630910873,-0.409216046333,0.497960925102,-0.659495532513,-6.531876564026,0.795158386230,0.095628105104,4.251038074493,1.661242008209,-0.765140235424,-1.278592705727,-1.544777154922,-0.787084877491,0.021211292595,-2.094232559204,-3.580914735794,1.751283049583,-1.517073273659,-1.534680724144,0.659335911274,0.353760063648,-3.866987466812,0.204983696342,1.567976593971,-1.756670832634,-2.390861511230,-1.718858480453,-2.933488845825,-2.401518344879,1.889589190483,0.456414848566,-3.782373905182,-2.493274450302,0.064473867416,1.035098433495,-0.702601909637,-0.959919571877,0.440234124660,-1.240291237831,0.736737430096,-6.607797145844,-4.126875400543,-1.962876200676,-1.821362257004,0.771096646786,-0.353857755661,-0.005776716396,-3.095376729965,2.027027845383,2.032903194427,-0.034520842135,-0.660980284214,0.193330243230,-2.600504159927
