1.963662266731,-4.719253063202,-5.629134654999,-2.434976816177,-1.520424604416,-0.928963601589,-2.196918010712,0.682819426060,-1.176048159599,-1.050491094589,-5.599138259888,0.230361297727,1.160700559616,-0.587507247925,3.197209358215,0.331419289112,-0.219502896070,-0.027198091149,-0.129133567214,-2.336292982101,-3.947411537170,4.443950653076,-3.265053510666,0.526576220989,-9.288526535034,1.276249051094,-2.332862138748,1.643181920052,1.612224340439,-1.395547866821,-6.043229103088,0.378023833036,-0.032725486904,-2.679174423218,-1.677225828171,-1.781317949295,-0.460048019886,-0.316403478384,-7.613268852234,-1.635004281998,-0.140370309353,-1.675798892975,-5.570333480835,-0.671931028366,2.162524938583,-1.385059475899,-1.486575484276,-0.008998038247,-0.288125008345,-0.472950965166,-5.859840393066,-0.850434422493,-7.618866920471,-0.589908480644,-3.531309604645,-0.750906407833,-0.614365041256,-2.498249292374,-2.872869253159,0.689713239670,-1.825657367706,-2.455200672150,-7.894439220428,-1.916469335556,3.527397394180,-0.189587011933,-0.643661320210,-0.740988671780,-0.769750833511,3.549725055695,-1.496291279793,-3.637052774429,0.635643839836,-1.607350230217,-4.385509014130,-1.387812018394,-0.932412087917,-3.980421304703,-0.551653206348,0.252511322498,-0.327284395695,0.537353873253,1.242463946342,-0.201152086258,0.689585745335,-2.097280740738,-0.450012505054,1.685901522636,-3.871518373489,4.481807231903,0.673201024532,-0.711955964565,2.931148767471,-4.693691253662,1.175552606583,-3.472438335419,-0.024255950004,-1.827883720398,0.569632172585,2.001198291779,-1.805390954018,1.990380048752,-0.799276471138,0.672439098358,-8.209510803223,-1.230494856834,3.547183513641,-5.448291778564,1.002002835274,1.340454459190,1.048330426216,-3.824320077896,-0.775355637074,0.472661972046,-1.145483493805,2.073590755463,-3.334938526154,-3.639031887054,-0.537385165691,-0.021135862917,1.265424489975,-1.887225270271,-3.668091773987,2.613308906555,0.404718786478,-1.914708733559,4.051212310791,-1.791091561317
