0.014267442748,-0.031073881313,-0.004864218645,0.004982947372,-0.006190123968,0.005071469583,0.019353833050,0.004520122893,0.015894699842,-0.013269693591,-0.006335623562,0.009076753631,-0.005930070300,-0.003446225543,-0.011786398478,-0.003374038497,0.006263938267,0.010140173137,-0.011136399582,-0.005029634573,-0.004319870844,-0.004905815702,0.012099889107,-0.023537743837,0.004302659072,0.007594045252,0.004133624490,0.005866357591,-0.012277484871,-0.037462446839,-0.003403440583,0.007051156368,-0.007029189263,0.005790807307,0.013350009918,-0.010212461464,-0.005634131376,-0.009215260856,0.016349386424,-0.040659919381,-0.005247708876,0.011213768274,0.009806199931,-0.007667639758,0.004810160957,-0.004376560915,0.007629285567,-0.006990142632,0.024916995317,0.006002730690,-0.010673581623,0.011136866175,-0.041525878012,-0.005723333452,0.008680418134,0.004574409220,-0.006380602252,-0.005019068718,0.005407566205,-0.005826902576,0.012693640776,-0.074365153909,-0.006157673430,-0.005398727488,-0.005788335111,0.005776385311,0.007201105356,-0.003529063426,-0.005400031805,0.005342835095,0.004663023632,0.008143009618,-0.030369635671,0.005198328290,-0.026452802122,-0.005903888028,-0.006872194353,0.007248093840,0.005310775246,-0.004888344556,0.004688989371,-0.006706293672,0.008439776488,0.004124581348,0.007330937311,-0.006371368188,0.014363395981,-0.005730458070,0.008540840819,0.007260627579,0.004256998189,-0.004569161683,-0.011940078810,-0.004313629586,-0.017449870706,-0.014252613299,-0.012246156111,-0.005800398532,0.006007004529,-0.052697312087,0.013908460736,-0.005478065927,0.009125397541,0.004882305861,0.004673253745,-0.008076530881,0.005204007030,0.031349916011,-0.016355806962,0.091194093227,-0.004017152358,-0.008322681300,0.004595216364,-0.014816306531,-0.004706595559,-0.004026715178,-0.007705013268,-0.004215543158,0.004232981708,0.030668117106,-0.025278823450,0.006845401134,-0.005109458230,-0.006333881989,0.004438069649,0.004318949766,-0.005901902914,0.005033576861
