-4.739814281464,-15.661482810974,-1.303604841232,-0.258207142353,-1.750509500504,-0.582086503506,2.139157772064,-1.275068402290,-2.297730684280,-5.424825191498,0.247879698873,-0.028977880254,-0.462018400431,-0.976199924946,1.499893426895,0.596193432808,-1.445072054863,1.686777591705,-1.319101333618,-1.615694642067,-0.629319369793,-2.258981704712,-3.357202053070,-3.623127222061,0.404493957758,-0.050686199218,-0.528668403625,-2.300403356552,1.560940027237,-4.453032493591,-0.571079492569,-4.088264465332,0.424661278725,-1.994806408882,-1.523853302002,-2.969256162643,-3.104903459549,-0.363231271505,-7.029887199402,-8.426445960999,-2.429342746735,0.414019167423,-0.284821510315,-2.706725120544,1.867494225502,-1.273891806602,0.114771775901,-4.110358238220,-5.017569065094,-3.473346471786,0.224089026451,-4.018422126770,-17.968664169312,-4.508258342743,-0.114242821932,-1.978685617447,-3.312119722366,-0.992282688618,0.467218577862,1.342544436455,-5.006589889526,-0.217879429460,2.318816423416,-2.490566253662,1.292937159538,1.284560322762,-0.565095424652,-0.605486571789,-4.659922122955,-0.263452529907,-1.538434386253,1.010546565056,-8.122140884399,-0.843223154545,-5.442212581635,-6.215984344482,-1.882275462151,-0.637007057667,-0.692767202854,-0.846282064915,-0.348835706711,-5.646074771881,-2.429370641708,0.345162361860,1.145345926285,-1.986433863640,-5.154445171356,0.204112350941,-2.670221328735,-2.460010290146,-0.730382323265,0.425125062466,1.506679177284,0.192071184516,-2.547215223312,-1.505560398102,0.727870106697,-0.403205573559,0.688933372498,-7.315814495087,-1.228637695312,-2.513305425644,-1.426781773567,-2.108760356903,0.264333784580,0.500198900700,-0.547067701817,-5.069260120392,-0.336133003235,0.226339548826,-0.368522733450,0.616129934788,-1.392707347870,0.183694273233,1.661231160164,-1.498139619827,-1.972221732140,-0.947688877583,-0.458565920591,-3.580625772476,-8.105021476746,-4.590539932251,-0.734930336475,-1.348479628563,-2.361226320267,-1.323652863503,-0.784902513027,-1.571861505508
