-7.675559520721,4.089642047882,1.301697254181,1.766390800476,-2.731587171555,3.343285799026,-0.014197598211,-8.865683555603,-2.427776575089,-0.994463086128,1.254941225052,-1.680674076080,-7.679754257202,-4.365803718567,3.728334903717,0.931139469147,1.164369225502,-1.239576578140,-0.350372076035,-4.223885059357,-1.760256409645,-0.178151711822,0.287708789110,-0.399705886841,1.859498620033,-1.668317079544,-6.530388832092,-2.517830848694,-2.013725757599,0.405475169420,2.036082983017,-0.708550989628,-1.077220082283,3.842804193497,-2.679172515869,0.158954948187,-2.909934520721,-3.726686477661,1.286710500717,-1.463623642921,-4.511146068573,-3.601480960846,-6.787306785583,-0.922646105289,-1.769256472588,-1.155128002167,3.652508735657,-2.127826213837,-1.118663430214,-1.984706640244,0.090456955135,3.035877466202,3.649966478348,0.804029583931,-3.050662279129,-3.771543741226,3.135776042938,-7.901370525360,-3.394845724106,0.612823545933,-0.205692037940,-4.686452865601,-1.958546400070,-1.210046172142,-0.483270645142,0.044942978770,3.487045049667,-2.785193443298,0.143681690097,-3.890583515167,-2.668997764587,4.795100688934,-0.753469288349,-0.873175084591,-4.681457996368,-2.066694021225,-7.828794956207,1.256403207779,-4.166952133179,-0.676150977612,-0.180786728859,1.079731345177,-2.168817758560,-0.710860669613,-0.659910082817,0.307121098042,0.792669296265,-2.823846101761,0.542893171310,-2.047015428543,0.654948234558,-0.389525175095,0.390427589417,-1.072737932205,-0.021686743945,6.491679191589,-2.060178756714,-5.597432613373,-4.119269371033,3.754858493805,1.463764667511,0.440167814493,-1.695284366608,3.145499229431,0.262533098459,-3.704524993896,0.988966822624,1.867958784103,-2.797072649002,0.688657224178,-0.009164666757,-0.113275311887,-0.873907208443,-0.039136093110,0.923048734665,-0.323612183332,0.281723469496,3.896811485291,-3.125089645386,2.185458421707,4.805534362793,-0.110905744135,0.083007395267,-1.273230910301,0.287309885025,-2.256464481354,-0.358385711908,7.804024219513
