0.011935866438,-0.077041313052,-0.069468900561,-0.529862105846,-0.064993359149,-0.013611983508,0.059705704451,-0.424979984760,0.547849655151,-0.293263673782,0.007824542932,-0.104001969099,-0.097107268870,0.092209585011,-0.117135070264,-0.265920430422,-0.036227267236,-0.076727561653,0.706488668919,-0.274308204651,-0.565437436104,-0.148521795869,0.078362338245,0.760432004929,-0.162150070071,-1.179472208023,-0.222826585174,-0.017659096047,0.427145361900,0.220416739583,-0.861009120941,-0.071685418487,-0.431463778019,-0.823214292526,-0.036047384143,-0.511964261532,0.006263166200,0.872272074223,-0.723427414894,-0.247778847814,-0.192413166165,-0.624774873257,0.076893791556,0.130487352610,-0.084893785417,-0.012336634099,-0.063557051122,-0.666226327419,-0.510794103146,0.639136016369,-0.068565130234,0.048609577119,0.654753863811,-0.300113707781,-0.087802655995,-0.499326318502,-0.629981935024,-0.576000034809,-0.574249327183,-0.269506037235,-0.194147050381,-0.908517181873,0.233260244131,-0.040935281664,-0.142397880554,0.080261617899,-0.137636914849,-0.027135562152,-0.073032476008,-0.099499620497,-0.478622555733,-0.440770328045,-1.744853019714,0.291503429413,-0.426785349846,0.425317674875,-0.317000657320,-0.181814536452,0.034099616110,-0.194126099348,-1.183890819550,-0.540287792683,0.734016716480,0.178924784064,-0.047694951296,0.330782562494,-0.601327478886,-0.054076042026,-0.357203513384,-1.015645503998,0.026152452454,-0.141789749265,0.132452353835,0.006324511487,0.013419303112,-1.650810599327,-0.056142006069,0.005134740844,-0.065897494555,-0.154260873795,-0.720883786678,-0.354446083307,0.878393769264,-0.081368371844,0.318041175604,-0.707482516766,-0.515610933304,0.010330016725,-0.991746604443,-0.024394828826,-0.069449707866,-0.030044211075,0.258593320847,0.141623929143,-0.207547381520,-0.119795344770,-0.040836639702,-0.006905190647,-0.086145088077,0.362835794687,-0.136216953397,-0.304022341967,0.664120554924,-0.327299177647,0.647567510605,-0.201942488551,0.013390853070,-0.249661818147
