1.738886237144,2.750838518143,-1.313823223114,-1.272276401520,0.744275093079,0.638551712036,-3.841465711594,3.097266435623,-3.980503320694,-0.403521329165,-0.356603801250,1.168395876884,-1.040701866150,0.818090558052,-0.213181599975,-0.190702453256,-1.681473374367,-0.711688101292,-0.262303590775,0.683664798737,-2.136240959167,0.189567610621,-0.521520674229,0.991491854191,-0.241078630090,0.862119495869,0.923179924488,0.089374803007,0.821706056595,0.173503458500,0.671904981136,0.555612325668,-1.230254650116,4.215151786804,-1.450490355492,0.456283152103,-0.678421378136,-1.042435646057,0.048027440906,0.652586996555,-3.429182767868,0.958765566349,-0.696391999722,0.097749926150,0.849407732487,-2.313988208771,-2.845792531967,0.201511621475,1.978320479393,-1.926073193550,-0.101733230054,-1.067950725555,0.627985179424,1.059951663017,-0.126471653581,0.776806533337,0.614367127419,0.379565596581,-1.430664300919,-0.295701622963,0.169847011566,0.191335380077,-0.012617195025,-3.341477632523,-0.181153312325,-0.028184132650,-0.526512086391,-0.520380198956,0.399930328131,0.618968248367,-2.065840244293,-0.004833271261,-0.604049682617,1.131809353828,-0.882698655128,1.007056713104,-0.638112246990,1.573593378067,-0.379951506853,-1.557261347771,1.436100840569,0.717929244041,0.219952642918,-0.439351648092,0.190278455615,-0.602657616138,-1.837293028831,0.585845053196,-1.016016006470,-1.101973414421,2.561642408371,-0.606793403625,-0.010274224915,0.896323323250,-2.470963478088,-0.639709532261,-0.076230689883,-4.257926940918,0.123382367194,1.597203493118,1.553201198578,0.783380866051,-0.018781982362,-0.304130017757,-1.391910076141,-0.856741845608,-1.925516486168,-0.534137129784,0.302676409483,-2.226206302643,0.534267187119,-0.334031462669,-0.943552136421,0.072072960436,-4.139579772949,0.863614618778,1.304607152939,0.087869837880,-1.026167511940,0.914032220840,-4.772039890289,-0.485958486795,-3.709920406342,2.384927988052,-1.731868147850,-0.050707183778,-0.867901086807,-1.388556957245
