1.715631723404,-0.942418098450,-0.535730183125,2.757964372635,-1.893457412720,3.094639062881,0.507105648518,-0.011995156296,-0.013303856365,1.307795286179,0.530977547169,-4.013679504395,0.939225554466,-1.053566455841,-0.608412146568,-2.823757171631,1.921623229980,0.470115512609,2.720458507538,-0.254621267319,0.724222123623,-0.001651762985,-2.415103673935,-1.495970129967,-0.632336139679,1.851473450661,0.320932507515,-0.023970959708,-2.063776969910,2.088824033737,0.754274666309,1.759457349777,-4.212790966034,4.092500686646,-2.511547327042,0.244332417846,-0.663915097713,-0.201299369335,-0.006236003712,2.209430456161,-0.085761800408,-0.052528467029,1.354061961174,-0.905972063541,-0.159020021558,0.888598859310,-0.534057557583,-0.183889105916,-3.093183994293,-3.749461650848,-0.879986226559,-2.164962053299,-0.130212351680,-0.623273730278,0.580247402191,2.554005146027,-2.338436365128,0.946758151054,-4.095586776733,2.156984329224,-0.012157246470,-1.260974407196,-4.348066329956,-0.535621047020,-0.623841524124,-0.495652735233,-6.247933864594,2.041931152344,0.635745286942,1.993014097214,0.213916495442,3.310383796692,-0.130166530609,2.159038305283,4.193743228912,2.880179643631,-3.640437364578,-0.004774662200,4.328015804291,-0.108052723110,2.618612766266,-0.429174005985,1.957069277763,-0.010067972355,3.586574792862,-0.089468374848,0.044029641896,1.360838770866,-0.474053472281,-2.163362503052,1.997031092644,-0.011225532740,2.510432004929,0.376421838999,0.892522752285,-0.009923953563,0.184358075261,0.696630299091,-6.511630535126,0.235285431147,-1.017409801483,-1.183386683464,0.590324938297,-1.220647335052,0.050189681351,1.152255058289,-0.029743194580,0.087697841227,-1.283372402191,-1.820427060127,-2.782302618027,0.767150044441,0.689551234245,5.211238861084,0.056910101324,-0.426488935947,-2.092144966125,-0.776298940182,-2.249324321747,0.833833456039,1.585174202919,-0.020600622520,0.701915144920,-2.499906778336,-5.761560440063,1.912747979164,0.271779924631,-0.582112908363
