0.179295673966,1.022544264793,-0.933168053627,-0.527422428131,-0.763074457645,0.652182638645,0.391284018755,0.321876227856,0.125422522426,-0.005557783879,-0.175826713443,0.109628096223,0.424107074738,-2.017903804779,-0.264751493931,-0.356185585260,0.968547880650,-0.002828686964,-0.295625627041,0.522136271000,-0.261503189802,-0.776279926300,-1.042354464531,-0.014012555592,0.923998296261,-0.321451246738,-2.133649826050,0.764491081238,-0.016691122204,0.052930690348,0.423303902149,1.302524805069,-0.539158642292,1.663574457169,-1.684782862663,-0.873296558857,-0.171234205365,1.123539209366,-0.126604408026,-0.532818377018,1.090545058250,0.062719881535,0.252987116575,-5.041636943817,-0.318896800280,0.601571619511,-2.049300432205,0.461229175329,-0.278128296137,-0.053623400629,0.014100383036,0.120713017881,0.200637876987,0.241114526987,0.339272230864,0.664471566677,0.773967504501,-0.487166970968,-0.211552470922,-0.287275969982,-0.006842625327,0.041946776211,1.083861827850,-1.919959783554,-1.691570997238,0.742972433567,0.620786309242,-0.970107018948,-0.611834466457,1.023471951485,0.504689931870,-0.791258752346,-1.212111115456,0.102987751365,0.344563007355,-4.059431552887,-0.267702847719,-0.661643564701,0.106567367911,-0.093450114131,-2.191808462143,0.198016434908,0.311415165663,0.318166047335,2.145360708237,1.333436727524,-0.223083168268,-1.746537923813,-0.724833250046,-0.309547901154,-0.626868188381,-0.164335459471,0.780798316002,0.185801744461,0.153586998582,-0.937885105610,-0.414400547743,-0.089947104454,-2.412149190903,1.276265025139,-0.412294596434,-1.317327380180,-0.638385117054,-2.462342023849,1.520408511162,0.896292507648,0.744948506355,-0.057499326766,0.266357988119,0.588111221790,-1.317946076393,0.144414797425,0.623757779598,-0.260018229485,0.280568480492,-0.808821737766,0.501683890820,-0.273840665817,0.444767951965,1.047687053680,-0.072766266763,-0.330554068089,0.541565656662,-0.118406802416,1.188742518425,0.620107173920,-0.312048286200,-0.552159667015
