-0.000131629567,-0.000140477132,0.000063884225,0.522322714329,0.496288478374,-0.000002623523,-0.000009220188,-0.000026679179,0.000089750836,0.000025711941,0.000031609965,0.000015726437,-0.000007382525,0.001071724575,-1.231417655945,0.000021878212
0.000085567241,-0.000738934265,-0.012586425990,-0.003410900244,-0.019118821248,0.053804516792,0.036276571453,-0.000102853708,-0.003737663617,-0.010579695925,-0.098386481404,-0.000259930675,-0.027981078252,0.074441686273,0.004593573976,-0.000801266287
-0.001099875779,-0.001390165882,0.000859416323,-1.137316942215,-0.455119937658,-0.000219242458,-0.000514587038,-0.000001221374,-0.000676163647,-0.000493925589,0.000627110305,-0.000054738055,-0.000669613772,0.008627062663,1.166487336159,0.000521305657
-0.006107721943,0.005933978129,0.002350799507,0.110914692283,0.011367270723,0.152659878135,0.300304085016,-0.001305686077,0.090447679162,-0.000763145566,-0.023107526824,0.000637653051,-0.002824650379,0.035281188786,0.005637665745,-0.004110536538
0.366649776697,-0.160538583994,0.614656746387,0.001347233774,0.000115592375,0.000100063720,0.000351077586,0.000180782547,-0.000661625876,-0.000357949117,-0.000091064241,-0.000079153862,-0.000354159274,0.005043874029,-0.000753173081,-0.000513592386
-0.034610107541,-0.053270604461,0.034167587757,0.000076873410,0.017981810495,-0.034822538495,-0.071067392826,0.001219353755,0.030061440542,-0.419874638319,0.398859560490,-0.000924713793,0.168897941709,-0.737808406353,-0.065898135304,-0.000500283088
-0.000610015763,0.000642897852,0.002765252721,0.051883999258,-0.029760800302,-0.197443425655,0.067446321249,0.000099103636,0.100622363389,0.000589321135,-0.004924930632,-0.000665657222,0.003206978785,0.002786930185,-0.034177489579,0.001187860733
0.294727712870,0.303289502859,-0.177382126451,-0.045315958560,0.026524119079,-0.294110268354,0.322447091341,0.000681145990,-0.067188821733,0.010239481926,0.110134802759,-0.000395044364,0.047690737993,0.139054358006,0.093171164393,-0.012043801136
-0.000346739718,-0.000439201627,0.000477692549,-0.410785019398,-0.151930749416,-0.000147096289,0.000056041765,-0.000014358458,-0.001113828039,-0.000183523400,-0.000102208440,0.000020434791,-0.000568486284,0.004409899469,1.555904030800,0.000617296027
-0.000421951234,-0.004329075571,0.012050962076,-0.037621263415,0.072045385838,0.012163656764,-0.014778251760,0.001017456874,0.012852501124,0.132862791419,-0.227774500847,-0.000920002465,0.153642132878,-0.243903979659,-0.039358433336,-0.002904781373
0.000012486415,0.000543488073,-0.000949254376,0.004603286274,-0.002108562039,0.286283969879,-0.080252498388,0.000593674427,0.000374431576,-0.272325694561,0.090584494174,-0.000151616259,-0.001820307691,0.003394081257,-0.002527178032,-0.000112500784
-0.000187376863,-0.003646534635,-0.000386497559,-0.003039241536,0.003106058342,0.000488410413,-0.000047487432,-0.000095267314,-0.000060303519,0.000156355178,0.000338447222,-0.000095012358,0.002282252070,-0.443947106600,-0.003791759023,0.000436472706
-0.000443332363,0.001031734748,-0.001199055230,0.305977731943,-0.457128137350,0.000961149344,0.001968884608,0.000206915662,-0.000078498306,0.000888592855,0.000856300001,-0.000189582381,-0.001343203243,0.003703294555,-0.465122550726,0.001335494453
0.005849419627,0.016114655882,-0.002241502749,0.172833412886,-0.056737385690,0.399654775858,0.889357924461,0.000474961329,0.410898834467,-0.012420653366,-0.046648159623,-0.000321514904,0.014221761376,0.016477774829,-0.207778662443,0.005276372191
-0.000705986924,-0.000968040957,-0.010065311566,-0.018574373797,0.002123795217,-0.003779472550,-0.008900465444,0.000277141109,0.006019099616,0.004474630579,-0.086105048656,-0.000506908051,0.054806537926,0.128618016839,-0.001170410425,0.002668109257
-0.003952535335,-0.003490349976,-0.003136668121,0.094643533230,0.013981264085,-0.158029124141,0.141758605838,0.001526644453,0.022089920938,0.010881680995,0.011421320029,-0.000310665462,-0.001915409346,0.004745906219,-0.070309571922,0.001399384579
0.091721400619,-0.134613707662,0.169695109129,-0.004072863609,-0.000039250877,-0.000891395495,-0.000209775564,-0.000721669407,0.000847753894,-0.000182617368,-0.002552281832,0.000262069982,0.001216328354,-0.160564750433,0.004963835701,0.000114674993
-0.000052478706,-0.000060103339,0.000169138351,0.700211167336,0.073728621006,0.000305906316,-0.000105687068,0.000010317356,-0.000067871268,-0.000397183903,-0.000011181842,-0.000058915055,-0.000366831606,0.003583221463,-1.344135046005,-0.000744352641
-0.002533716848,-0.003061702708,-0.000029075265,0.017793655396,-0.081365823746,0.000235200641,0.000437923794,0.000350461312,-0.003608090337,-0.000584438327,-0.001285701175,0.000100451107,-0.000073646464,-0.001082507544,1.587056398392,-0.001256354037
0.163529098034,0.118729159236,-0.032890126109,0.037190943956,0.007312689908,0.003127319971,-0.004705129191,0.002177668503,-0.010535721667,-0.004212658852,0.007876838557,-0.002389347181,0.001707044546,-0.040558356792,-0.007137238514,0.003414422739
-0.000037069643,0.002617796883,-0.002934585093,0.106903627515,0.049616958946,-0.001899545663,-0.000085303582,-0.000444571691,-0.001764294924,0.000767353864,0.001541105798,-0.000969346787,0.000888662762,-0.031563211232,0.364845067263,-0.011023781262
-0.000358010206,-0.000508957368,0.000344567816,-1.045799851418,-0.443738669157,0.000027760974,0.000065049178,0.000011976593,-0.000041997744,-0.000088971392,0.000048536902,-0.000059118956,-0.000112792826,0.003534530057,1.179368972778,0.000819843670
-0.002822791226,0.006203168537,-0.004468123429,-0.026379790157,0.015648812056,0.203527197242,-0.083465613425,0.000459643721,-0.076623320580,-0.005523328204,-0.002195126843,-0.000407797605,-0.004108878318,0.009058183059,0.021858228371,-0.000957564858
-0.000811007107,-0.001977971755,-0.001254373929,0.001500830753,-0.002692652168,-0.483019948006,-0.213932096958,0.000807312434,0.005759434309,0.003963995725,-0.000545890420,-0.000476279674,0.002591007855,-0.000212447238,-0.000839071989,-0.002182450611
0.087624289095,0.140365839005,-0.036244194955,-0.012343578972,0.002660459606,0.001299366355,0.015376226045,-0.002817712026,0.095747314394,0.001422305591,0.005681015551,-0.000483063166,-0.000516876346,0.011246637441,0.025842271745,0.001473732293
0.005283826496,0.010893732309,0.010066337883,0.048742145300,-0.031764518470,0.011091536842,-0.011316252872,-0.000320887833,-0.588528573513,0.001376984059,-0.003073832253,-0.000343719468,-0.003262421349,0.021215869114,-0.036871761084,0.003176329657
-0.000479284994,-0.001704745810,0.000850799726,0.163536354899,0.066637977958,0.000230898702,0.000099691788,0.000123996520,0.000419125863,-0.000444528850,-0.000381162565,-0.000040218743,-0.000804990181,0.010447243229,-1.446047306061,0.000352991483
0.370162159204,-0.470166355371,-0.338437110186,0.001506171073,0.000163753197,0.000492721156,0.000382866448,0.000186985999,-0.000301920139,-0.000586626120,-0.000283456320,0.000005072372,-0.000027937283,-0.001345165307,-0.001457354403,0.000166959187
-0.000617965590,0.000355850789,0.000800399925,0.010874817148,-0.008396339603,-0.000987733598,0.000312185584,-0.000260817847,-0.441383928061,-0.000265123992,0.000858530286,0.000803001050,0.000560356653,-0.001126395306,-0.000588452094,-0.000569674070
0.000708386418,0.000676547061,-0.000261497858,0.448249459267,-0.838320314884,-0.000526096846,-0.000624101143,0.000002685172,-0.000422090932,-0.000380029669,0.000341491192,-0.000114430608,0.000259910070,0.002493872074,0.481579810381,0.001747058239
0.000001245812,-0.000323539745,0.000091153495,-1.851940989494,0.006655672565,-0.000357105455,-0.000039216135,-0.000094146024,0.000416040275,-0.000230960359,0.000221758601,-0.000106283202,-0.000177366339,0.002995318733,0.132202714682,0.000511399878
0.003535081632,0.001142243971,0.000598030165,-0.040146678686,0.095938250422,0.001794603188,-0.000959698635,0.001090542763,0.004115053918,0.001907045953,0.008585894480,-0.000705550658,0.170657858253,-0.018712302670,0.013731665909,-0.002386269625
-0.000188226390,0.000383768842,-0.000171164051,-0.691692411900,0.603906512260,0.000025169484,-0.000026022786,-0.000184453034,-0.000520731322,0.000212926971,-0.000169454695,0.000029125691,-0.000286565890,0.003357853508,-1.140301465988,-0.000555317441
-0.000094673094,0.000327949092,-0.000348009518,-0.918272495270,0.441979169846,0.000201611008,0.000021238498,-0.000089340101,-0.000013456003,-0.000237861037,0.000033921173,0.000112487367,-0.000189348531,0.001933671883,-1.552648663521,0.000407790154
-0.000961305690,-0.001221320359,0.001236331183,0.236202880740,0.090218953788,-0.000006074989,0.000201432777,-0.000099706165,0.000396927644,-0.000223923969,-0.000057327532,0.000012434836,-0.001112179481,0.012361141853,-1.228026866913,0.000756464375
0.227749660611,0.441992491484,-0.226623445749,-0.002326254034,0.000415359420,-0.000340309722,0.000108780070,-0.000655159121,-0.002314822981,-0.000306332076,0.000826904259,0.000066693014,-0.000973470218,0.009553475305,-0.000953300740,0.000975613424
-0.000061208717,0.000306542497,-0.000585611619,-0.746109247208,0.940861701965,0.000025356561,-0.000406862324,0.000223297087,-0.001538066193,0.000005694892,-0.000158626674,-0.000194116874,0.000095504889,0.006597938947,-0.741277813911,0.000649269088
0.001795134624,0.001348152291,-0.000190525228,0.005976123735,-0.003069147235,0.001633268548,-0.002318586688,-0.000062450112,0.000307120761,0.476475268602,0.384814083576,0.000045833760,0.003016232047,0.004837941378,-0.001985363429,0.000114305847
-0.000189392173,-0.000246729178,0.000062105762,0.178841382265,-1.410268545151,0.000003284016,-0.000133355774,0.000064947126,-0.000388581509,-0.000130229382,-0.000381754799,-0.000128419793,-0.000168757295,0.005131029524,-0.580015540123,0.000580954540
-0.003543444676,-0.004675081465,-0.005885541905,0.037493623793,-0.138544350863,0.001791679533,0.004577681422,0.000142920340,-0.000370402471,0.012709713541,-0.006416757125,-0.000880278647,-0.130262792110,0.093247897923,-0.002287733601,0.001013780478
-0.005817875732,-0.005292885005,0.009567931294,0.233764216304,0.175770863891,0.000761062140,-0.001053640270,-0.000869093288,-0.000719311007,-0.000466854806,0.000566360541,-0.000148639359,-0.001223405357,0.043998852372,1.063298821449,-0.717423617840
0.000629408809,0.001133556827,-0.001122106332,-0.003641903168,0.003498392180,0.000278592051,0.000208152866,0.000152662018,0.000393033843,0.000122882164,0.001152822631,0.000032785556,0.002463719342,-0.940661132336,-0.003790114541,0.000683603634
-0.002454330679,-0.007376205176,-0.003052288201,0.018142251298,-0.033124700189,-0.003404291579,-0.027582256123,-0.001547680004,0.008787452243,-0.170144036412,0.220402494073,0.001125409850,-0.466254115105,-0.103978708386,-0.001475255587,-0.005387215409
-0.000313013676,0.000433434674,-0.000384683983,0.465093106031,-1.047060728073,0.000432549015,0.000547053060,-0.000186083635,-0.000336181431,-0.000192851832,0.000006998665,0.000270075630,-0.001208261005,0.003987246659,0.485548973083,0.001137413317
-0.000974575581,-0.005488662980,0.000379105040,-0.003541525220,0.008855954744,0.000014698378,-0.000355738826,0.481184870005,-0.008745884523,0.000164400117,-0.000430687651,-0.510560154915,-0.003128310433,-0.014105139300,-0.008459734730,0.000165860227
0.249153181911,-0.004199993797,-0.430333256721,-0.000309337658,0.000939297373,0.000182969277,0.000171815846,-0.000283458678,-0.000905743684,-0.001254998497,-0.000145149010,-0.000258274289,-0.000199093440,0.010529446416,-0.000634512922,-0.000504923926
-0.000909835799,-0.000873401412,0.001404662617,-0.229353606701,0.243354767561,-0.000485327997,0.000001203295,-0.000259837834,-0.000390880072,-0.000327517861,-0.000927204266,-0.000026238393,0.001392608043,-0.002834303072,0.272454559803,-0.001564026694
-0.000285145710,0.000177960901,0.000308936636,0.241045504808,-0.572123587132,0.000104208768,0.000551236968,-0.000097065182,-0.000163796489,0.000517838809,-0.000040731346,0.000155230897,-0.000454849243,0.004322666209,-1.463947415352,-0.000659010373
-0.000029018100,-0.000111231893,0.000070142138,-1.120443820953,-0.537227094173,0.000029627918,0.000028364204,0.000031303716,0.000033019889,0.000026594545,0.000012503766,-0.000009782110,-0.000038681217,0.000463683100,0.782084405422,-0.000008574450
0.285055130720,-0.008674880490,-0.035739481449,0.013971465640,-0.012792171910,0.054227214307,-0.039151441306,0.000898865052,0.007600705139,-0.000593492528,-0.002129737753,-0.000246517506,0.005571051501,0.015657145530,0.023724453524,-0.001125250012
0.000931145507,-0.000433617213,-0.001035749563,-0.060979004949,-0.047271538526,0.000027334558,-0.000462733529,-0.000307404669,0.000357219600,0.000630238559,-0.000739383104,-0.000058465994,0.000377156219,-0.007861132734,-0.261359483004,0.102980181575
-0.020593587309,-0.072887092829,0.036879785359,0.078944109380,-0.025986665860,0.001069525606,0.066641852260,-0.000122973812,-0.025977673009,0.395705223083,-0.345111519098,-0.000198820737,-0.110716082156,-0.933118641376,0.192629143596,-0.006853801198
0.000022402464,-0.000154778449,0.000319509301,0.725322604179,-0.128898546100,-0.000161874821,-0.000119884942,0.000080610873,0.000310252100,0.000074090829,-0.000044457382,-0.000093904251,0.000013664237,-0.000755883229,0.805935442448,0.000058043268
-0.003218930447,-0.006235759705,0.008000647649,0.006318558473,-0.002625342924,0.177673503757,-0.126025542617,-0.000583513116,0.041744105518,-0.156984537840,0.109857313335,-0.001330347266,0.051655370742,-0.068255849183,-0.007054582704,0.000582933601
-0.004187026061,-0.000882573018,0.000061348488,-0.034030307084,0.014664251357,-0.012039122172,0.206508323550,0.000943897699,-0.093937411904,-0.001598612289,0.000982193393,-0.000160380907,-0.002076169709,0.001060870127,0.021035347134,-0.001386234071
-0.002779925475,0.000202406824,0.003425912699,0.036367200315,0.094869852066,0.035614680499,0.008374770172,-0.001064028009,0.008946001530,-0.009567993693,-0.004592966288,-0.000750061183,-0.000241843125,-0.337456732988,-0.266789078712,-0.001703750575
-0.000151225249,-0.000174851128,-0.000153158311,0.130478501320,-1.736484050751,0.000022042253,-0.000111361485,-0.000022617231,-0.000150212232,0.000010549281,-0.000131378518,-0.000047868998,-0.000926102628,0.003907864913,0.105070635676,0.000938276935
-0.000230665566,-0.000473708380,0.000300950720,0.116423606873,0.050616800785,-0.000005907410,-0.000021287358,0.000099271892,0.000017678260,-0.000057402609,0.000044294135,-0.000009819572,-0.000334857439,0.003170744749,-1.636792182922,-0.000297927822
-0.000537055952,-0.000481275900,0.000477007212,-0.408014148474,-1.282472372055,-0.000266584073,-0.000213663807,-0.000104882289,-0.000502643816,-0.000204668351,0.000062329498,0.000209470410,-0.000343742955,0.002293676836,0.541055202484,0.000005513308
0.000601460692,0.001368063153,-0.000821759168,-0.728507280350,0.671904206276,0.000152950830,-0.000332500204,-0.000161490942,-0.000515670923,-0.000238506196,-0.000049152906,-0.000051509185,-0.000584924070,0.003776766593,-0.877878129482,-0.000853001780
-0.000281388726,-0.000576470105,0.000141062803,0.395393341780,-1.443895578384,-0.000139720607,0.000010709754,0.000125693361,-0.000328196591,-0.000042786651,0.000652042509,-0.000090045010,-0.000473234279,0.006308572832,0.165922239423,0.001830710913
-0.000988849206,-0.001887418446,0.001276884926,-0.692165672779,-0.128657251596,-0.000323980639,-0.000195090382,-0.000014097922,-0.000084782048,-0.000650045811,0.000115907933,0.000096915865,-0.000858952175,0.011296036653,-1.697304487228,0.001853396185
-0.000395243114,-0.000430025510,0.000331164629,-0.823545336723,-0.313387215137,-0.000091150105,-0.000020571664,0.000025688423,-0.000376401906,-0.000147246392,0.000130200599,-0.000057628866,-0.000294949161,0.003279900877,1.613432884216,0.000289152435
0.395212769508,0.287044584751,0.418362706900,0.000667263812,0.000049365201,0.000124239625,0.000192299834,0.000005159429,0.000464023557,-0.000017266675,-0.000245337549,-0.000014145961,0.000081098202,0.005482994951,-0.000779204944,0.000806302764
-0.000791959232,-0.003630928695,0.009069185704,-0.006200705655,0.020909043029,0.007206872571,0.012433376163,-0.000098433098,0.007308318280,0.043511934578,0.188376486301,-0.000498637964,0.031879033893,-0.159401625395,-0.021536093205,-0.000857407926
-0.001384170144,0.000011353275,0.001772819669,0.078229233623,0.053800005466,-0.000161091171,0.000536551408,0.000175501293,-0.000751345884,-0.000011302270,0.000522883318,0.000220143702,-0.000536855252,0.008976928890,0.302364021540,-0.124366752803
-0.002892036689,0.003753409022,-0.003281511599,0.004739866126,-0.000286482187,-0.002810104284,-0.000578251202,-0.379981905222,0.032609172165,-0.001104335301,0.001338062924,-0.401481628418,-0.023832546547,0.016204090789,-0.021206136793,0.000877821236
-0.000482851756,-0.000858599902,0.000616791949,0.615887582302,0.259399950504,0.000019342147,0.000318669307,0.000019005354,0.000619022234,-0.000030952950,-0.000015670055,0.000029277966,-0.000359693891,0.005145693198,-1.442472577095,0.000263072579
-0.001741414075,0.006940232124,-0.000255851977,-0.025418173522,0.059587944299,0.007102167699,0.008179643191,-0.000962739985,-0.001812628354,-0.078760601580,-0.128181234002,0.000263646507,0.059004925191,-0.014037612826,-0.016136480495,0.001104211435
0.002486035693,0.009402709082,0.004811935127,-0.023656485602,0.044048346579,0.004155659582,0.034985173494,0.002144172089,-0.011298836209,0.217035189271,-0.281611949205,-0.001604549121,0.594823658466,0.133378639817,-0.000615600788,0.007124247029
-0.000750958454,-0.000346436282,0.000134275222,0.173556521535,0.072894200683,0.000035779212,0.000168194325,0.000055675246,-0.000018670205,-0.000107843043,-0.000045287397,0.000127352221,-0.000189015656,0.004951276351,-1.663057208061,0.000615441066
-0.001143415109,-0.000674299605,0.000436674978,-0.415839374065,0.215740680695,-0.001080685644,0.001531036687,0.000446831400,0.000546321215,0.000051214440,0.000734573230,0.001798701473,0.001665149000,-0.004642516375,0.291412502527,-0.002339386614
-0.006327321287,0.025409189984,-0.023551395163,-0.030225927010,0.001415860257,-0.002787660807,0.000327060668,0.009689754806,-0.011924606748,-0.004913050681,-0.023301105946,-0.000225557975,-0.021764542907,0.880761325359,0.208515673876,0.009730840102
-0.000430756802,-0.000955112919,0.001358051668,-0.334068477154,-0.121258430183,-0.000775865512,-0.000835548970,0.000089985406,-0.000268861593,-0.000182749543,0.000207867415,0.000002815149,-0.000770646089,0.004903666675,0.817559242249,0.000924525026
-0.000262244517,-0.000223745126,0.000248762983,0.325652509928,0.122614115477,0.000000249915,0.000035424135,-0.000040515850,-0.000129611813,-0.000140630465,0.000000117296,-0.000055716489,-0.000346636371,0.003665686352,-1.674997448921,-0.000525430602
-0.167385175824,-0.047462552786,-0.291775524616,0.002634846605,0.001962251263,-0.000298381201,0.000745795958,-0.000582451932,-0.000084171865,-0.001251527923,-0.002063994063,0.000174755143,0.001108848024,0.014207638800,-0.003253164468,-0.001209894195
-0.000092326314,-0.000257459644,0.000167442820,0.513090431690,0.192672863603,-0.000079711761,0.000013237674,-0.000014988080,0.000087940585,-0.000071587208,0.000033187796,-0.000012893772,-0.000085744257,0.001782528358,-1.653305411339,0.000099507248
-0.000288939860,-0.000383802748,0.000223049661,0.495596647263,0.181031972170,-0.000045130382,0.000073099662,-0.000053726009,0.000244145544,-0.000057017933,-0.000048159767,0.000042180167,-0.000226094693,0.003462359076,-1.405304551125,-0.000268405594
0.000080434547,0.000405462488,-0.000415589631,0.011386356317,-0.000438146933,0.000053184671,0.000006318415,0.000268349570,-0.000173806256,0.000510186073,0.000165040212,-0.000012654951,0.000812669809,-0.007821851410,0.629622519016,-0.000505313335
0.008542450145,-0.000466784375,-0.026408342645,-0.034474395216,0.015074603260,-0.007236476988,0.005104111508,0.001306514256,-0.000081577811,0.152661547065,-0.006392321549,-0.000873263110,0.035340137780,0.167370036244,0.007155527361,-0.002561939647
-0.000397421623,-0.000550893485,0.000491487677,-1.961709380150,0.120099335909,0.000075200587,0.000237116532,0.000014152737,-0.000292162440,-0.000168333165,0.000216507557,-0.000018975590,-0.000789273297,0.006799737457,-0.912560164928,0.000059641377
0.000042350533,0.000002181599,-0.000146567647,0.883837223053,-1.186387181282,-0.000070185240,0.000007868020,-0.000055269324,0.000346226734,-0.000179362905,-0.000145706421,0.000041728588,-0.000342743093,0.001275960356,-0.924333274364,0.000253489998
-0.002849271987,0.000547606556,0.000907944748,0.002177199116,-0.002137740375,0.053243063390,0.515344381332,0.000793605868,-0.000535606756,0.000898169877,0.000151514294,-0.000038537346,0.000323016371,-0.000777156441,-0.000444658595,0.000338312035
-0.000636779645,-0.000743974175,0.000656136079,-0.884564280510,-0.320874482393,-0.000353852782,-0.000360624457,-0.000066850436,-0.000155181318,-0.000238706998,0.000270129560,0.000080142279,-0.000759166898,0.007417347748,1.347087144852,0.000534388702
0.020267510787,0.071578286588,-0.035614468157,-0.076927803457,0.024802610278,-0.001192110940,-0.065149180591,0.000253895269,0.025554755703,-0.388516277075,0.338913679123,0.000137911949,0.108999393880,0.916079342365,-0.189627662301,0.006929522846
-0.000409009343,-0.000477893249,0.000561687979,-0.666732370853,-0.244072213769,-0.000279767235,-0.000089767134,-0.000043544605,-0.000074574993,0.000076751967,0.000067189758,0.000044218676,-0.000444789766,0.003202346852,1.569484949112,0.000878346618
0.000001688009,-0.000062765459,0.000087778091,0.213660657406,-1.617075562477,0.000064986554,0.000085140564,0.000032058564,-0.000005957497,-0.000060930677,0.000082140192,-0.000020419440,-0.000227331358,0.001074277563,0.198892936110,0.000231094644
0.002303725574,-0.003441373585,0.002883973299,-0.011683138087,-0.010183386505,-0.002453152323,0.005758970976,0.000196546680,-0.000347182882,0.000417601696,0.000875730591,0.003523085965,-0.000436236587,0.000517034612,-0.003812713781,-0.002881386084
-0.001046829508,-0.000724860409,0.001169220312,0.184215679765,0.074837237597,0.000012160281,0.000444446283,-0.000045536617,-0.000190647857,0.000091276437,0.000172718341,-0.000027670621,-0.000846415584,0.010831478052,-1.663394331932,0.000130179382
0.002748711966,-0.033802688122,-0.007736775093,-0.003401389811,0.002958979690,-0.000094928677,0.000917205703,0.000894145807,-0.003159222659,-0.013784836046,0.000963460945,-0.000723658013,-0.006997580174,1.007049202919,0.003559660399,-0.000174609930
-0.000127975509,-0.000136903400,0.000062265521,-0.620556354523,-0.673786342144,-0.000150337553,-0.000128249085,-0.000004104698,-0.000230836959,-0.000060904436,-0.000016326951,0.000019632706,-0.000123485312,0.001106586424,1.482320547104,-0.000339530903
0.004200438503,0.004278457258,-0.027145709842,-0.013639073819,0.019715802744,0.004117573146,0.015419771895,-0.000021516596,-0.001234993571,0.138437315822,0.168031975627,0.000688872417,0.014705874026,0.153268381953,-0.006391704548,0.000670025707
-0.001671188511,0.014587381855,-0.002975883894,0.140701681376,-0.059479784220,-0.317145317793,-0.629544079304,0.001669806894,0.336692631245,-0.001258239616,-0.005234654993,-0.000153893809,0.009651794098,-0.003185864305,-0.158318370581,0.003749552881
0.078213244677,-0.056128676981,-0.144634798169,-0.001635576831,0.000714119640,-0.000283093454,0.000358120597,-0.000598860788,0.000706008053,0.003518775571,-0.001055955654,-0.000455139059,0.000683020218,0.232968851924,-0.004311427474,0.002086437773
0.003399771871,-0.004067798145,-0.001764676068,-0.001330655883,0.001508587971,0.000460431795,0.000757951173,-0.000169604551,-0.000268792850,0.000654089439,0.000512600644,0.000173136781,0.001057279296,-0.480300247669,-0.001232038834,0.000605103618
0.001302457531,-0.001563141122,-0.003739845240,-0.003766717622,0.002577797975,0.000058689151,-0.000206523575,-0.000041098829,0.000478079251,-0.000833810132,0.000595508493,-0.000069683214,0.002568698488,-1.649462223053,-0.002506712219,0.000019176992
-0.285969734192,0.423683524132,-0.215303361416,0.000103912709,-0.000549334858,-0.000231423022,-0.000071903902,0.000186540303,0.000346730027,-0.000116215895,-0.000286376773,-0.000282704394,-0.000079864549,0.003678410547,-0.000466273894,-0.000363982952
0.003246578854,-0.002042863751,0.004675325938,0.018402708694,-0.013935297728,-0.035627700388,0.232140555978,-0.001004422316,0.080977573991,0.004067404196,-0.007076893002,0.000599371735,-0.000703092781,-0.007335321512,-0.034029420465,0.001334994799
0.007268505171,-0.002650606679,-0.006419782992,0.026482671499,-0.013460757211,0.294987231493,-0.087483637035,0.000030884145,0.095019601285,-0.002331911353,-0.007049552165,-0.000257390260,0.000733857742,0.002660912462,-0.031335111707,0.000000738795
-0.005486686248,-0.001219994156,0.016209943220,-0.005175988190,-0.026503272355,0.217344507575,0.110966995358,-0.001675079460,0.115046359599,-0.001053614193,0.003683449468,0.001050576451,0.001802151324,-0.003778053913,0.035609655082,0.002103960840
0.000470987608,-0.001624415745,0.001252955641,-0.555664122105,0.585991740227,-0.001356623019,-0.001189512084,0.001248690300,-0.000032128937,0.000461277406,0.001574370079,0.000035200144,0.005450888537,-0.003179699415,-0.523718237877,-0.005625712685
-0.004244685173,-0.005054838955,0.011784015223,0.049637310207,-0.065724946558,-0.001108512166,-0.002620188287,0.000079724858,0.001477871439,0.060913417488,0.126232743263,-0.000437521754,-0.172441378236,-0.054095812142,-0.026216890663,0.001495047822
-0.000663743995,0.001875671907,0.000777718087,0.078127577901,0.130273118615,0.001578853233,-0.001618031063,-0.000090721711,-0.002485927427,-0.000553981459,0.000203784002,-0.000153184039,-0.002331641968,-0.000171453823,1.656506299973,-0.000039816518
0.000344995176,0.001367485616,-0.000563159527,-1.451790094376,0.905900061131,-0.000744819466,-0.000018443956,0.000500604685,-0.001012554858,-0.001651492552,-0.000071437222,-0.000022571570,0.001547256252,-0.001046729507,-0.056126773357,0.003830303438
-0.220113113523,-0.226468279958,0.132750347257,0.033492699265,-0.019572177902,0.219552963972,-0.241214096546,-0.000536644598,0.050209425390,-0.007905098610,-0.081941410899,0.000380724669,-0.036214657128,-0.104672566056,-0.069015957415,0.009081727825
-0.000122553203,-0.000090808739,0.000038119117,0.066386818886,-1.667998790741,-0.000019745281,0.000056234741,0.000018432700,-0.000040241899,-0.000130694287,0.000038141825,0.000009574852,-0.000135977694,0.003650589846,0.031742870808,0.000120574965
-0.000722948986,-0.000770706800,0.000656085787,-0.832421362400,-0.953345716000,-0.000314281468,0.000205053322,0.000111542489,0.000625075947,0.000036590776,-0.000175438865,-0.000173995140,-0.000585274014,0.007040196098,0.495614409447,0.000230369755
-0.242398694158,-0.279501795769,0.098840907216,0.000205322605,0.000083157007,-0.000053778916,-0.000079718586,-0.000248188851,0.000460567418,-0.000706660037,0.000190422375,-0.000133597103,-0.000930670998,-0.000658402452,0.000174499801,-0.000510534621
0.000666851643,0.001654024585,0.002237483626,-0.019448855892,0.033537995070,-0.000475105568,0.000470157160,-0.000555606559,-0.003952770028,-0.013478121720,-0.000297237915,0.000200701295,-0.490755259991,0.014675005339,-0.002953455318,0.000579827931
-0.266132026911,-0.165470361710,0.370296001434,0.000162182710,0.000836700725,-0.000255380699,0.000775008695,-0.000485378812,-0.000233453698,-0.000348379544,-0.000078030942,-0.000263487716,-0.000465181074,-0.003899682080,-0.000395373878,-0.000227741388
0.007597414777,0.010275683366,-0.006198366638,-0.023991167545,0.023653462529,0.004276766907,0.028896819800,0.000731825363,0.003873698181,-0.070446141064,0.138103008270,-0.000109776127,0.058565054089,0.083887204528,0.001440357999,-0.001578716445
0.002063971944,0.000591998862,-0.001229734276,0.061470817775,-0.022933222353,0.163834452629,-0.171400472522,0.000146152553,0.107880026102,-0.003613301087,-0.004024999216,0.000621594954,0.004747956991,-0.002243466675,-0.020758401603,0.000846393523
-0.000737414521,-0.000830698467,0.000789384299,-0.580615878105,-0.214620828629,-0.000124668688,-0.000288508134,0.000017737726,0.000461806107,0.000022838994,0.000011260879,-0.000111932546,-0.000447609345,0.004544308875,1.167678475380,0.001256706542
-0.117555290461,-0.130958572030,0.023647712544,0.002777823946,-0.002003554022,0.001152434270,-0.000204638258,0.000110898640,0.000911928248,-0.000441949640,-0.001936857472,0.000196516135,-0.000194699518,-0.200561389327,-0.002628556686,0.001346525853
-0.001374715706,-0.001918026479,0.006478957366,-0.003219971200,0.007445427123,0.026381360367,0.225594446063,0.000534539344,0.042422000319,-0.011540027335,-0.226342752576,-0.000716146315,0.043980982155,-0.060897491872,-0.005455140490,-0.000043511831
0.000720835698,0.001590539468,-0.001711258199,0.335873991251,0.111170470715,0.000079079226,-0.000515234715,0.000233364350,0.000492523715,0.000930237002,-0.000358522870,0.000033655608,0.001340714283,-0.011108060367,-0.036683272570,-0.001729729353
0.000728423474,-0.003015443916,-0.000433156936,-0.008015318774,-0.005745017435,-0.001488521346,-0.001267226180,-0.005390947219,0.003678610781,-0.000374088733,-0.002311728662,-0.000584028952,0.000101784208,-0.006014708430,0.000400339020,0.000044413729
-0.000056634963,-0.000250244193,0.000188259612,0.559370338917,-1.397138595581,0.000393511378,-0.000034447403,-0.000129628403,0.000188296734,-0.000319433137,0.000000724115,-0.000139813215,-0.001006650855,0.003442155197,0.587560117245,0.000070130955
-0.000998538104,-0.005414190702,0.000371657137,-0.003103530034,0.008364198729,0.000125027669,-0.000107623586,-0.478970915079,-0.008729372174,0.000037660880,-0.000488359074,0.509259045124,-0.003143457230,-0.014006266370,-0.008257430047,0.000223244890
0.000185568060,0.000465308956,-0.000251376914,-0.416752755642,-0.156210765243,-0.000010287962,-0.000107147724,-0.000029970972,-0.000340535247,0.000007379546,-0.000126919898,-0.000010010329,0.000153015193,-0.001392124104,1.553202033043,0.000099037556
-0.002809799043,0.003978854511,-0.003031600732,0.004440046381,-0.000264520757,-0.002848684322,-0.000379875826,0.380378156900,0.032502781600,-0.001104106428,0.001227495726,0.402599096298,-0.023599682376,0.015931429341,-0.020821478218,0.001137814485
-0.001446654089,-0.006303614937,0.007540851831,0.001714800601,0.001313454239,-0.140507608652,-0.212507277727,0.000035687452,0.066069528461,0.122548647225,0.211264103651,-0.000675208052,0.065449997783,-0.091285265982,-0.011343532242,0.001174948877
-0.002490835730,-0.002072030213,-0.000083801759,-0.342488706112,0.754370033741,0.000585531350,0.000890310155,-0.000432661735,-0.003114868654,-0.003096319037,0.000493597647,0.000286429393,0.002294987906,-0.003615053603,0.882848799229,0.004933366552
-0.000433599402,0.000087866356,0.000300176529,-0.019162323326,0.040524721146,0.002007299801,0.000704288832,-0.000200293842,-0.002524881158,-0.006024867296,-0.000822065806,-0.000130574917,-0.289512723684,0.052354376763,-0.003537192242,0.002815109212
0.002696031705,0.438046306372,-0.183352902532,-0.001308763516,0.000165536447,0.008724858984,0.001471088035,0.000376682350,0.001501036808,-0.000873902638,-0.003541637678,0.000119720222,-0.001029089559,-0.002894007368,-0.001277589123,0.000153588247
0.000166039477,0.000187987069,-0.000859515392,-1.539639711380,0.209914028645,0.000981562654,0.000726296916,-0.000058375052,0.000721814693,-0.000241031448,-0.000600525236,0.000180462172,0.000151293876,0.004510262050,0.831083774567,0.001478303224
0.036838673055,0.056624472141,-0.036145918071,-0.000775173190,-0.018166502938,0.037151128054,0.075346633792,-0.001276043011,-0.031786736101,0.447176992893,-0.425057351589,0.001045671408,-0.179804891348,0.785378336906,0.069103389978,0.000839701970
0.001379267545,0.001789967995,-0.000831716228,0.156027466059,0.059364236891,0.002505382057,-0.000364083127,-0.000558901229,0.001114759594,0.001137295854,-0.000326031790,-0.000013113257,0.001273165108,-0.016522603109,0.472174912691,-0.000555248349
