-0.388738423586,0.871497094631,-0.148648962379,1.185552000999,-0.125109866261,-0.461593955755,-1.030551195145,-0.973244667053,-0.238162457943,-0.202639982104,0.773922979832,0.280504584312,-0.044379543513,0.121949255466,0.027912924066,0.938951730728,0.038448203355,-0.774161517620,-0.449888557196,-0.684411466122,0.060832798481,-0.056839421391,-0.480306982994,-1.057216286659,-0.141514047980,-1.165552139282,-1.436679601669,-0.035121995956,-0.300748527050,0.514681577682,-0.311692833900,-1.936877727509,-0.685142874718,-0.276238173246,-0.731183111668,-0.844714164734,-0.101889021695,0.255791902542,0.165318667889,0.373998999596,0.004681712016,-0.321232587099,-0.398134082556,0.064656920731,-0.312156766653,-0.491232693195,-0.469264626503,0.324714541435,-0.040758892894,-0.990820765495,-0.096560634673,-0.610391259193,0.604813098907,-0.239314526320,0.515257000923,-0.380973190069,-0.440717458725,0.313974976540,0.065899036825,0.669583022594,0.914445161819,-0.108393169940,-0.056377742440,1.611714959145,-0.079280175269,0.586467683315,0.754218161106,0.278549224138,0.049001138657,-0.109600506723,-1.770398974419,0.042704891413,-0.297179222107,-0.261977702379,0.723134994507,-0.246184453368,0.962310910225,1.492794513702,0.776972651482,0.203117191792,0.390300571918,-0.949422836304,0.431059509516,0.695270717144,-0.618854820728,-0.386454403400,-0.146945387125,-0.039258975536,-0.878097534180,0.788100242615,0.109831936657,0.020634116605,0.245915472507,-0.026923995465,-1.342024445534,-0.161455675960,-0.828180789948,-1.121686577797,-0.437764108181,-0.977077782154,-0.441734403372,0.294093608856,0.408999562263,0.661643564701,0.233102098107,0.867590725422,-3.082595348358,0.087181136012,0.135611936450,-0.166483297944,-0.080078393221,0.212144672871,0.176478102803,-0.715808391571,0.688696742058,-0.041682887822,1.693000793457,0.767334938049,0.290975987911,0.275025874376,-1.080456376076,-1.278987169266,1.373377680779,-0.038933053613,-2.080989837646,0.905167341232,0.454615682364,0.736806690693
