0.165425062180,0.073835387826,1.028475284576,-0.729707002640,0.033960700035,-0.637558281422,0.008577872999,-0.020644310862,0.202561825514,-0.387671142817,-0.282706648111,0.657197713852,-0.073657229543,0.048442199826,-0.229279264808,0.253205090761,-0.209237232804,-0.124100163579,-0.084255248308,-0.541574776173,-1.037598252296,0.157459050417,1.174842476845,0.138362973928,-0.278623044491,0.115165710449,0.327660411596,0.200976088643,0.126036405563,-0.250115245581,0.181674823165,0.257166951895,-0.496523678303,0.261952906847,0.022395005450,-0.475526452065,0.126868054271,0.284413248301,0.555188179016,0.249734148383,-0.120287992060,-0.156721070409,-0.060680475086,-0.258794516325,0.071276776493,0.019540080801,0.831302046776,-0.035996377468,-0.112134106457,-0.052830014378,-0.897064089775,0.247910067439,0.072833418846,-0.413618505001,-0.812363386154,-0.381047219038,0.271009683609,0.148588538170,-1.696015477180,-0.069581083953,0.217896208167,0.227818414569,0.086039826274,1.260984897614,0.247818619013,0.027841880918,0.136314034462,0.123797647655,0.087591916323,-1.012651801109,0.389207214117,0.357344537973,-0.377947300673,0.540171861649,-0.504343867302,0.638551473618,-0.440999239683,-0.155386656523,0.047156713903,-0.307162374258,0.250601649284,-0.434695452452,0.111616805196,-0.115279078484,-0.121861383319,-0.270825505257,-0.830175638199,0.764119863510,-0.982631266117,-0.333964973688,-0.442942321301,-0.321791470051,-0.384928733110,0.402393192053,-0.071559526026,0.259907543659,0.120879240334,0.553992629051,0.227897286415,0.356499373913,-0.639912068844,0.454753398895,-0.142605930567,-0.185737475753,-0.049912858754,0.282085686922,0.218602642417,0.470238476992,-0.242078393698,0.054951559752,0.794322609901,0.273225367069,0.380450189114,-0.196697503328,-0.501909732819,0.193561449647,-0.704135596752,0.031911373138,0.113114207983,-0.181312695146,0.380382746458,-0.186709299684,-0.165830284357,0.104318544269,-0.627013504505,0.462969362736,-0.333519309759,0.229751080275
