-0.599549055099,5.866676807404,6.598486423492,-0.001540109399,-1.154427647591,-0.538721024990,-0.208752915263,-0.167447552085,0.991587877274,-0.020439373329,-0.060357831419,0.042706433684,-9.029239654541,-0.770262241364,-1.030130505562,0.696085929871,-0.085305012763,-0.057734236121,-1.969178676605,-0.490436911583,-0.208369836211,1.151596665382,-1.409592509270,0.072902761400,-0.142807215452,-1.810245156288,0.652686178684,0.847999453545,1.440651655197,-0.963024973869,0.580010533333,-0.291390329599,0.846810758114,-3.374782562256,-0.468996018171,-1.074359059334,1.625750541687,-0.451062560081,1.128625154495,1.652421832085,-1.231330633163,0.356429576874,0.071390658617,0.772398591042,0.462763965130,-1.140627026558,0.347345322371,-0.223679363728,-0.928677022457,0.500079512596,0.063512459397,-0.647681534290,-0.776144206524,-0.783733367920,-1.021179556847,-0.431669682264,-0.708365380764,-0.756812095642,-1.024885177612,0.041647519916,0.844688057899,-2.320313930511,-2.003397226334,0.343116581440,-0.025322267786,-0.174725860357,0.154922485352,-0.159360900521,-0.011050051078,0.175849184394,-0.739256799221,0.585963606834,1.473273515701,0.392704010010,2.088902711868,0.093709021807,-0.707266211510,0.081722527742,1.724137067795,0.884100675583,-0.262640208006,-0.671615719795,-1.197033286095,-3.517392873764,-0.362050086260,-4.309038162231,0.099139899015,0.853063642979,0.838861703873,0.064360707998,1.354112148285,0.464617341757,-0.492100805044,0.191785916686,-1.917040705681,-0.040024235845,-0.944140672684,0.518843710423,-1.414418697357,-0.420345753431,2.766207695007,0.283232986927,-3.174888372421,-2.742391347885,1.199933528900,-0.994594335556,0.898995697498,-0.003077626461,0.294818729162,-0.604082822800,0.281458944082,-1.940732836723,-0.894082248211,0.258729666471,1.567517995834,3.840279817581,0.123986430466,-0.935422897339,0.650231957436,1.926164746284,-0.832786083221,1.292823553085,-0.488254368305,4.052029609680,-1.478042721748,0.447772413492,-0.947909832001,0.390276253223
