-0.001770840609,0.001579289674,0.001395505853,0.002812462393,-0.003687097691,-0.001099122805,-0.003502537962,0.002843803959,-0.003945687786,0.001547005028,0.003058616305,-0.000578462554,-0.006078083999,0.001011200133,0.003815295175,-0.010449863039,0.001552433474,0.002151277615,0.002058269223,-0.005776386708,0.003091942286,0.002116180025,-0.002044983907,0.001733419602,-0.005635699257,-0.003414435545,-0.001159462379,0.001927779638,-0.003886440536,-0.001183386077,0.001310360967,0.002063837135,-0.003005868290,-0.003618390998,-0.003328125924,0.001187014859,0.002150271554,-0.004649843555,0.003601008793,-0.001662595547,0.002848027507,-0.003447412746,-0.001131678000,-0.002546680393,0.002736395225,-0.002346659778,-0.006453054957,-0.003201682353,0.000819580979,-0.005137799773,-0.001547285006,0.015766816214,0.001211707713,0.002590400167,-0.001774712699,-0.002310618991,-0.001429567812,0.001333101187,-0.001720769214,-0.001614484936,0.038138706237,-0.004524924792,-0.002912097145,-0.001463280758,0.001203531167,-0.006462883670,0.013327715918,-0.001570572262,-0.001219927217,0.001403406262,-0.002530490747,0.001440431690,0.012910134159,0.002683056984,0.003165659262,0.000843340589,0.006018152460,0.001451249002,-0.006188191939,0.001681816997,0.002353488002,-0.003039857140,-0.001210558810,-0.001957529690,0.002705290215,0.005401188042,0.001879211399,0.004406553693,0.002197582508,0.001166773262,0.002249277662,0.003427170450,-0.003717518644,0.002100344282,0.000909164199,-0.001666298485,-0.000922248990,0.001286425395,-0.001317776274,0.005232862197,0.005671723280,0.001462709275,-0.003653579392,0.001037979499,-0.000915766461,-0.002873360878,0.001536739292,-0.002923504682,0.000918518985,0.002861856483,0.001207513385,0.000906698289,0.003500318620,-0.016177261248,-0.002223759890,0.004356881604,-0.001735447440,0.002105345484,0.001595824375,0.001970628044,0.002629599534,-0.004433329683,-0.001355525223,-0.001720643602,0.002600512234,-0.001456333790,0.000962365477,0.001364418189
