-1.225363373756,-0.285747766495,-0.286250948906,0.419849961996,0.212547019124,-0.343707293272,-2.777953386307,2.035411119461,-0.387504845858,-1.180405855179,-0.328898698092,-0.111800447106,-0.795244514942,-0.823867917061,0.749307274818,0.661892890930,3.091208457947,-5.813365936279,-1.551316261292,-1.393287658691,-1.264338016510,-1.161331176758,-0.088166199625,0.225139692426,-0.817816972733,1.766045570374,0.380652397871,0.763576805592,2.369445800781,-0.796881973743,0.422767907381,0.746997535229,-2.057650804520,0.174834251404,-1.878483653069,-0.116565465927,1.064557671547,0.483990818262,-1.130034327507,1.673548221588,1.710805892944,-0.866076171398,-0.589277207851,0.528048157692,0.793288648129,-0.123408220708,-1.556675910950,-1.425804376602,-0.255771070719,-0.306226432323,-0.714284539223,-0.857033371925,-1.130217313766,-0.251035332680,2.584137678146,-1.117853045464,-0.012593812309,-2.929357767105,-1.151975631714,0.639076828957,-3.268107175827,-1.828869462013,0.296888440847,1.435231447220,-0.285317391157,-0.015060812235,-0.243867397308,0.590256690979,-3.532190084457,0.416932374239,-3.831504821777,0.060935690999,-0.918104588985,2.063170671463,-1.723242759705,0.009607792832,-5.356999874115,-0.625536978245,-0.078730687499,-0.364900618792,0.616599619389,-1.425556540489,0.126727446914,-1.050093650818,2.552182197571,-1.936330676079,0.296736449003,-0.029322938994,-0.842221677303,-0.781628072262,-1.134654045105,0.211590349674,-1.158681392670,-0.545619547367,-0.246124088764,-0.361002832651,2.342324495316,0.593438565731,-2.694441080093,-0.730419039726,-0.512563049793,-0.488550961018,-0.744756937027,-0.308624833822,-0.140503659844,-0.551440060139,-0.002945817541,0.356408417225,-0.729395508766,1.465313673019,1.172399878502,1.000811457634,-0.420880824327,4.649577140808,0.959819614887,-0.732134759426,0.797067582607,2.146128654480,-0.083554849029,-0.129096150398,-0.055969476700,-0.536630034447,-1.783078670502,-3.840200424194,1.767048716545,0.856444358826,0.268705219030,-0.082678958774
