2.357729434967,-0.058148443699,-0.435221523046,0.329036861658,-1.684263348579,-0.594285964966,0.143432274461,0.262670189142,-0.046562541276,0.005146306474,0.470540821552,0.267924755812,-0.921601295471,-1.524575352669,0.271015495062,0.770479202271,0.412176996469,-0.011748659424,-0.071508727968,1.583762526512,-0.317688941956,-1.009367704391,0.371987670660,-0.242143765092,-0.245824113488,-0.367893099785,0.083314843476,0.840418100357,0.393499046564,2.408303737640,0.844390451908,-0.212137296796,0.343255043030,1.223641991615,-0.212498813868,-0.467451423407,-0.239134132862,-1.078244566917,-0.329622387886,1.114465713501,-1.573709726334,0.047090977430,0.375338822603,0.103320315480,1.119516134262,-1.599553465843,-1.534224867821,-3.173308134079,-0.301171422005,0.017066922039,-0.627180993557,0.151712357998,0.863171279430,0.105566225946,0.362388044596,0.712735116482,-0.702373445034,-0.068007677794,0.094496510923,-0.271428406239,1.125566840172,-0.522807061672,0.403190314770,-2.495199680328,1.318369269371,-0.054585635662,-0.791969716549,-0.549727737904,0.108295612037,-0.327179402113,-0.349923670292,0.387784421444,1.715734481812,-0.291145414114,0.124689139426,-0.943390786648,-0.860932469368,-0.833740711212,0.549488961697,0.625870704651,2.391240596771,1.396905541420,0.837880790234,-0.275061994791,0.337054818869,-0.177896752954,-0.528102457523,-0.710980951786,-0.607829630375,0.093043811619,0.751648783684,-1.559187173843,-0.023043833673,-0.152345657349,1.509314656258,-2.818385601044,0.570454478264,-0.672681689262,-1.060697078705,-0.935871422291,-1.415955543518,3.288738250732,0.856632351875,-1.057802438736,0.169640332460,0.706988215446,-1.799865841866,-0.677936017513,-0.137744858861,-0.502132773399,0.173299029469,0.140913844109,-1.041047692299,0.188146039844,-0.132697865367,-0.465980738401,1.366079330444,-1.067248344421,-0.404543101788,-0.146903008223,-0.426946550608,0.080524645746,-0.187353387475,0.137958437204,-0.723567306995,-0.548523366451,1.479004740715,-1.100222945213
