0.348353713751,2.418859958649,-1.557475090027,-0.264283448458,1.733600378036,-3.098014593124,-1.234289407730,1.905675768852,-3.323255300522,0.387699037790,2.036122083664,0.969451427460,-0.939244329929,0.494326174259,-0.880445599556,-0.437464177608,-0.521847486496,0.161931604147,-0.795933365822,1.005608081818,-0.340682893991,-0.279665261507,5.155315876007,0.195958301425,0.329295486212,-0.711907565594,0.947423815727,1.146276831627,0.221115067601,0.685208618641,0.663562476635,-1.275546908379,-1.679421782494,0.319813966751,0.396731793880,-1.247401475906,0.062968932092,1.322720408440,0.015625001863,-1.023916602135,0.875255346298,-0.232835456729,0.526787877083,-0.270042657852,1.546936273575,-2.450257062912,-0.114440798759,-0.924502551556,-1.394005060196,-1.014829158783,-2.058073520660,0.298977702856,2.106027603149,-2.628799438477,-1.075861096382,-0.817054986954,-0.524488747120,-0.441364586353,-0.963872611523,-0.866508185863,0.122306331992,-0.051100615412,-1.981713771820,-0.391685456038,-0.775147259235,0.387143731117,1.799608469009,-0.118233747780,4.075482845306,-1.113501787186,0.057290505618,3.057796478271,-0.760994553566,-0.082822531462,2.280095338821,-1.262889266014,-1.047160983086,-0.975061058998,0.040792886168,-0.806811332703,-1.997341036797,-0.305365175009,-2.739299535751,-0.127096846700,-2.085355520248,0.418713331223,-2.817383289337,-0.972110867500,-0.545179307461,-1.821814298630,1.228147029877,-0.554221272469,-0.197806432843,2.009850025177,-0.955538153648,-1.975653052330,-0.940385401249,-0.276378214359,0.536108732224,-1.569116115570,-1.042175292969,3.522803306580,-0.337254077196,0.398866176605,4.739700794220,3.335326433182,-1.250032305717,0.071372672915,0.127870649099,0.254961401224,-2.220799207687,0.736308157444,-5.714843750000,0.921877980232,0.514132618904,-1.305513739586,-0.808670163155,-2.706303119659,-0.827126264572,0.587350189686,-1.053161978722,0.169286757708,-1.367170572281,-1.133113026619,0.193346768618,0.039927940816,-0.635335981846,-0.379848212004
